~o
<STREAMINFO> 1 39
<VECSIZE> 39<NULLD><PLP_D_A_0><DIAGC>
~v "varFloor1"
<VARIANCE> 39
 4.355356e-01 2.817596e-01 2.917285e-01 2.786574e-01 2.594995e-01 2.527556e-01 2.307981e-01 2.324331e-01 2.110891e-01 1.820830e-01 1.588534e-01 1.196717e-01 2.345859e+00 4.629866e-03 6.319351e-03 7.957405e-03 9.450205e-03 1.077513e-02 1.155886e-02 1.270435e-02 1.348473e-02 1.304911e-02 1.178684e-02 1.001301e-02 7.552556e-03 9.523377e-03 7.812097e-04 1.098516e-03 1.455124e-03 1.776137e-03 2.040286e-03 2.206554e-03 2.447087e-03 2.615273e-03 2.536757e-03 2.294958e-03 1.958092e-03 1.479870e-03 1.262614e-03
~h "silence"
<BEGINHMM>
<NUMSTATES> 3
<STATE> 2
<NUMMIXES> 128
<MIXTURE> 1 5.448410e-03
<MEAN> 39
 -1.287867e+01 -1.012898e+01 -7.116943e+00 -1.333444e+01 -6.957842e+00 -7.369910e+00 -6.712858e+00 -3.961963e+00 -2.868043e+00 -1.833602e+00 1.428144e+00 2.398663e-01 4.806011e+01 2.172849e-01 3.782984e-01 6.645439e-01 3.884547e-01 2.029908e-01 2.584291e-01 -1.980194e-02 -3.555787e-02 -8.012343e-02 -2.415978e-01 -1.088920e-01 -1.978415e-01 -1.957760e-01 -2.770280e-01 -1.770635e-01 -3.082876e-01 1.559125e-01 -3.598192e-02 -5.256002e-02 3.167512e-01 7.622915e-02 2.656445e-01 8.560877e-02 -1.591603e-02 1.213516e-01 -6.529613e-01
<VARIANCE> 39
 1.076279e+02 6.430257e+01 7.157861e+01 5.949594e+01 6.104326e+01 5.072216e+01 4.028850e+01 3.886226e+01 3.051867e+01 2.605104e+01 2.140059e+01 1.808344e+01 1.287607e+02 4.649594e+00 4.126011e+00 4.586730e+00 4.016174e+00 3.738045e+00 3.702670e+00 3.333020e+00 3.236983e+00 2.824003e+00 2.300947e+00 1.843074e+00 1.523844e+00 1.181657e+01 9.990513e-01 9.267320e-01 9.704635e-01 8.840697e-01 8.425996e-01 8.098075e-01 6.643245e-01 7.222108e-01 5.738166e-01 5.105367e-01 4.029129e-01 3.205817e-01 2.456969e+00
<GCONST> 1.342900e+02
<MIXTURE> 2 2.868947e-03
<MEAN> 39
 -1.741681e+01 -3.252568e+00 -8.284674e-01 -7.602342e-01 2.279294e+00 -5.732007e-02 8.594112e-02 -1.910918e+00 -2.496230e+00 -2.934939e+00 -2.602599e+00 -1.306185e+00 3.728486e+01 -1.275150e-02 8.555776e-03 2.753711e-02 4.665376e-02 4.984920e-02 5.474053e-02 4.593102e-02 3.089713e-02 2.025361e-02 6.127427e-03 -4.759879e-03 -1.391649e-02 -1.360022e-02 -1.050863e-02 -4.981130e-02 -8.478944e-02 -1.051130e-01 -1.019964e-01 -4.815113e-02 -9.100884e-05 2.118398e-02 3.060998e-02 3.244758e-02 4.099555e-02 3.005175e-02 1.085277e-03
<VARIANCE> 39
 6.014745e+00 1.088861e+01 1.047896e+01 1.111779e+01 9.111319e+00 1.059403e+01 1.208828e+01 1.259863e+01 1.167490e+01 8.851224e+00 9.356580e+00 3.662219e+00 1.790438e+01 8.216628e-02 1.840035e-01 3.057719e-01 4.447338e-01 5.927007e-01 6.928027e-01 7.656414e-01 8.321120e-01 8.727884e-01 8.557026e-01 6.805961e-01 2.925429e-01 2.676271e-02 1.395203e-02 3.331758e-02 5.827191e-02 8.594482e-02 1.112738e-01 1.330595e-01 1.523292e-01 1.618013e-01 1.581325e-01 1.470689e-01 1.302887e-01 5.749309e-02 4.501656e-03
<GCONST> 5.327052e+01
<MIXTURE> 3 5.619965e-03
<MEAN> 39
 -1.062525e+01 -8.393143e+00 -8.304035e+00 -7.707819e+00 -6.856833e+00 -5.603639e+00 -4.481201e+00 -3.297726e+00 -2.274596e+00 -1.298302e+00 -4.276582e-01 5.919094e-01 -6.422528e+00 1.604718e-05 -2.466956e-05 3.239834e-05 -3.756895e-05 3.746809e-05 -3.546487e-05 3.383198e-05 -3.313364e-05 2.982224e-05 -2.498187e-05 1.654466e-05 -1.014766e-05 -6.431285e-06 -3.612549e-04 2.415230e-04 -9.032778e-05 2.611661e-05 2.180998e-07 7.867153e-05 -1.287442e-04 -6.121697e-07 2.832900e-04 -2.249992e-04 -8.235242e-05 3.203216e-04 1.960710e-04
<VARIANCE> 39
 4.355356e-01 2.817596e-01 2.917285e-01 2.786574e-01 2.594995e-01 2.527556e-01 2.307981e-01 2.324331e-01 2.110891e-01 1.820830e-01 1.588534e-01 1.196717e-01 2.345859e+00 4.629866e-03 6.319351e-03 7.957405e-03 9.450205e-03 1.077513e-02 1.155886e-02 1.270435e-02 1.348473e-02 1.304911e-02 1.178684e-02 1.001301e-02 7.552556e-03 9.523377e-03 7.812097e-04 1.098516e-03 1.455124e-03 1.776137e-03 2.040286e-03 2.206554e-03 2.447087e-03 2.615273e-03 2.536757e-03 2.294958e-03 1.958092e-03 1.479870e-03 1.262614e-03
<GCONST> -8.805482e+01
<MIXTURE> 4 7.633099e-03
<MEAN> 39
 -2.034517e+01 -1.441547e+01 -1.517029e+01 -1.351537e+01 -9.044281e+00 -9.882627e+00 -4.168777e+00 -3.527367e+00 2.680082e+00 2.956335e+00 4.004002e+00 2.394137e+00 4.093512e+01 4.629194e-02 1.592982e-01 1.573955e-01 1.270160e-01 5.570168e-02 -4.262366e-02 -1.143939e-01 -2.002984e-01 -2.506618e-01 -1.864591e-01 -5.797761e-02 8.291142e-02 1.210228e-01 9.917773e-02 2.961055e-01 4.099715e-01 3.279026e-01 2.596877e-01 1.306453e-01 4.601317e-02 -9.094679e-02 -4.298754e-01 -5.379801e-01 -2.748575e-01 1.883954e-02 -5.247019e-03
<VARIANCE> 39
 2.597294e+01 2.299847e+01 2.150329e+01 2.008760e+01 1.903873e+01 1.786696e+01 1.647637e+01 1.554526e+01 1.283500e+01 1.023754e+01 1.071847e+01 7.412429e+00 1.100889e+02 9.084255e-01 1.110653e+00 1.206905e+00 1.260917e+00 1.371076e+00 1.400327e+00 1.500175e+00 1.516407e+00 1.493909e+00 1.376381e+00 1.153788e+00 9.009975e-01 1.047946e+00 1.679136e-01 1.803849e-01 1.909331e-01 2.283306e-01 2.361047e-01 2.410813e-01 2.468276e-01 2.455358e-01 2.187202e-01 1.854769e-01 1.979280e-01 1.296158e-01 1.812512e-01
<GCONST> 9.130236e+01
<MIXTURE> 5 6.935873e-03
<MEAN> 39
 -2.035973e+01 -1.459725e+01 -1.402034e+01 -1.300495e+01 -8.831318e+00 -9.569493e+00 -2.935692e+00 -4.172725e+00 -1.743102e+00 -9.540724e-01 5.020748e+00 5.493977e+00 3.993328e+01 -5.053935e-02 -9.730595e-02 -1.688869e-01 -1.732798e-01 -1.416602e-01 -7.755903e-02 3.305364e-02 1.320301e-01 1.942477e-01 1.744526e-01 2.602713e-02 -6.442966e-02 2.154163e-02 1.506210e-01 3.107461e-01 3.334668e-01 2.909019e-01 2.570919e-01 6.778295e-02 -1.078976e-01 -8.825436e-03 1.333264e-01 -2.661438e-02 -4.173156e-01 -4.137701e-01 5.359269e-02
<VARIANCE> 39
 2.408688e+01 2.143979e+01 2.154462e+01 2.012866e+01 1.956952e+01 1.913490e+01 1.669942e+01 1.642862e+01 1.259969e+01 1.085264e+01 1.026359e+01 6.603359e+00 9.346560e+01 3.261622e-01 5.221855e-01 6.506081e-01 8.050019e-01 9.596984e-01 1.076215e+00 1.132057e+00 1.146998e+00 1.093019e+00 1.011244e+00 9.248764e-01 7.138140e-01 3.291954e-01 1.076148e-01 1.274734e-01 1.537646e-01 1.969469e-01 2.184013e-01 2.271521e-01 2.290219e-01 2.278582e-01 1.917405e-01 1.656576e-01 1.627907e-01 1.065150e-01 8.360796e-02
<GCONST> 8.193003e+01
<MIXTURE> 6 5.318581e-03
<MEAN> 39
 -1.883491e+01 -1.131164e+01 -1.212011e+01 -1.115025e+01 -8.630993e+00 -9.538049e+00 -3.952620e+00 -3.509670e+00 -7.847545e-02 -8.392259e-01 2.191076e+00 2.674316e+00 3.696660e+01 3.829487e-01 7.632041e-01 8.958931e-01 9.195623e-01 7.317066e-01 3.807182e-01 -6.824973e-02 -4.916080e-01 -7.647383e-01 -7.506775e-01 -6.399298e-01 -2.958407e-01 9.761970e-02 7.667999e-02 1.473362e-01 2.277808e-01 2.676967e-01 3.112091e-01 1.867245e-01 2.099919e-02 -1.451078e-01 -1.822452e-01 -1.494477e-01 -1.603138e-01 -1.321707e-01 5.491415e-02
<VARIANCE> 39
 1.552194e+01 1.474417e+01 1.435708e+01 1.346131e+01 1.204790e+01 1.317575e+01 1.267487e+01 1.266617e+01 1.084883e+01 9.128799e+00 8.844552e+00 4.874702e+00 8.222974e+01 4.439454e-01 5.968908e-01 7.073921e-01 8.260035e-01 1.029725e+00 1.196103e+00 1.290859e+00 1.340953e+00 1.258884e+00 1.128893e+00 9.326295e-01 6.937911e-01 4.075961e-01 5.902034e-02 8.801705e-02 1.135266e-01 1.386875e-01 1.495632e-01 1.780526e-01 1.959738e-01 1.937906e-01 1.827129e-01 1.565846e-01 1.573228e-01 8.964644e-02 3.179440e-02
<GCONST> 7.562777e+01
<MIXTURE> 7 5.843483e-03
<MEAN> 39
 -1.808498e+01 -8.917028e+00 -8.333020e+00 -6.552101e+00 -3.219633e+00 -3.231796e+00 -6.776661e-01 -3.298177e+00 -3.541979e+00 -4.045144e+00 -2.115776e-01 1.497148e+00 3.445127e+01 6.841207e-02 1.941285e-01 2.788247e-01 3.513807e-01 3.729906e-01 3.549022e-01 2.827253e-01 1.964062e-01 7.216692e-02 -5.682746e-02 -2.660825e-01 -3.400074e-01 -7.004722e-03 3.481682e-02 3.834387e-02 2.300700e-02 -5.990516e-02 -1.597566e-01 -3.102621e-01 -2.726740e-01 6.386456e-03 3.104048e-01 3.349707e-01 3.541428e-02 -1.442442e-01 2.681104e-02
<VARIANCE> 39
 1.332472e+01 8.489424e+00 9.571475e+00 9.668927e+00 1.042881e+01 1.103392e+01 9.346311e+00 1.135383e+01 8.934545e+00 7.029421e+00 8.258415e+00 2.927970e+00 5.326468e+01 1.289917e-01 2.482265e-01 3.779511e-01 5.254481e-01 7.075458e-01 8.549738e-01 9.285289e-01 9.193208e-01 9.138169e-01 8.818986e-01 7.376044e-01 4.128762e-01 6.015176e-02 2.649292e-02 4.996715e-02 7.805254e-02 1.129325e-01 1.431300e-01 1.409899e-01 1.395775e-01 1.640509e-01 1.475531e-01 1.190796e-01 1.428671e-01 5.997472e-02 1.167777e-02
<GCONST> 5.942019e+01
<MIXTURE> 8 1.335121e-03
<MEAN> 39
 -1.062781e+01 -8.389897e+00 -8.307117e+00 -7.705524e+00 -6.858067e+00 -5.603215e+00 -4.481218e+00 -3.297734e+00 -2.274686e+00 -1.298084e+00 -4.278394e-01 5.921131e-01 -6.421444e+00 -3.885482e-02 3.031380e-02 -9.067034e-03 1.613239e-03 -3.176427e-03 2.520249e-03 -1.359354e-03 -5.946315e-04 5.025830e-03 -4.775656e-03 -4.743154e-04 6.960235e-03 1.748244e-02 -4.499431e-01 -3.495635e-02 -1.319517e-01 -1.106439e-01 3.759799e-02 -1.446790e-01 -3.098942e-02 1.539160e-02 6.334821e-02 -6.999534e-03 3.850719e-02 1.085206e-01 1.483147e+00
<VARIANCE> 39
 4.355356e-01 2.817596e-01 2.917285e-01 2.786574e-01 2.594995e-01 2.527556e-01 2.307981e-01 2.324331e-01 2.110891e-01 1.820830e-01 1.588534e-01 1.196717e-01 2.345859e+00 5.601616e-02 2.614948e-02 7.957405e-03 9.450205e-03 1.077513e-02 1.155886e-02 1.270435e-02 1.348473e-02 1.304911e-02 1.178684e-02 1.001301e-02 7.552556e-03 1.744616e-02 9.145015e-02 1.317946e-01 8.089239e-02 9.245145e-02 6.945822e-02 7.394671e-02 7.915030e-02 5.802634e-02 7.019251e-02 5.729760e-02 4.996379e-02 3.197409e-02 1.121130e+00
<GCONST> -3.276123e+01
<MIXTURE> 9 8.038897e-03
<MEAN> 39
 -2.119706e+01 -1.644495e+01 -1.494603e+01 -1.413402e+01 -8.023827e+00 -9.250051e+00 -1.848216e+00 -1.343863e+00 3.213133e+00 1.053809e+00 2.725139e+00 1.961113e+00 4.181417e+01 1.460866e-01 2.677803e-01 2.995144e-01 2.596054e-01 1.126826e-01 -7.425601e-02 -2.355198e-01 -3.437403e-01 -3.887480e-01 -2.492182e-01 -4.722936e-02 1.538738e-01 -8.551140e-03 2.007028e-01 3.439043e-01 3.717458e-01 2.959477e-01 1.290138e-01 -7.790955e-02 -2.697422e-01 -4.156350e-01 -4.867336e-01 -2.735690e-01 -3.031502e-02 1.563606e-01 7.419589e-02
<VARIANCE> 39
 2.374912e+01 2.283106e+01 2.430201e+01 2.272716e+01 2.374114e+01 2.222478e+01 1.930695e+01 1.771317e+01 1.354988e+01 1.333298e+01 1.169691e+01 8.610303e+00 1.125186e+02 1.866440e-01 3.310845e-01 4.919136e-01 6.362381e-01 8.143218e-01 9.205889e-01 1.061581e+00 1.088877e+00 1.043568e+00 9.994709e-01 8.558042e-01 6.995527e-01 8.113836e-02 3.432953e-02 5.701721e-02 9.296872e-02 1.356010e-01 1.699202e-01 1.858287e-01 1.887542e-01 1.916457e-01 1.700292e-01 1.688078e-01 1.496594e-01 1.066504e-01 1.425529e-02
<GCONST> 7.452747e+01
<MIXTURE> 10 5.259227e-03
<MEAN> 39
 -1.643194e+01 -8.844742e+00 -7.819513e+00 -7.167549e+00 -3.765705e+00 -6.462932e+00 -2.500225e+00 -3.882451e+00 -1.700270e+00 -2.594442e+00 -4.581278e-01 -1.435283e-01 3.885695e+01 6.581167e-01 1.167256e+00 1.312240e+00 1.124966e+00 7.451749e-01 3.821081e-01 -5.187283e-02 -3.311349e-01 -6.111812e-01 -7.430061e-01 -8.034089e-01 -5.822202e-01 1.450830e-01 1.653043e-03 -1.235549e-02 -2.513473e-02 -7.868389e-02 -1.089456e-01 -1.034466e-01 -1.049640e-01 -7.307516e-02 -1.886500e-02 1.325220e-02 8.039068e-02 1.070063e-01 1.693132e-02
<VARIANCE> 39
 1.853682e+01 2.434028e+01 2.546861e+01 2.341239e+01 2.120407e+01 2.191483e+01 1.958893e+01 1.986833e+01 1.712159e+01 1.548921e+01 1.229074e+01 6.946586e+00 6.496056e+01 5.980316e-01 7.628108e-01 9.014030e-01 1.028110e+00 1.362695e+00 1.548588e+00 1.662065e+00 1.638335e+00 1.507985e+00 1.341818e+00 1.037769e+00 6.802854e-01 4.251081e-01 7.255848e-02 1.238449e-01 1.586929e-01 1.699711e-01 1.895735e-01 2.157792e-01 2.320561e-01 2.354670e-01 2.271487e-01 2.181132e-01 1.837013e-01 1.130263e-01 3.171931e-02
<GCONST> 8.611672e+01
<MIXTURE> 11 7.763379e-03
<MEAN> 39
 -1.789793e+01 -1.013882e+01 -9.915152e+00 -8.132854e+00 -5.213521e+00 -7.004688e+00 -4.681622e+00 -6.310534e+00 -2.339085e+00 6.046187e-01 2.630362e+00 6.606414e-01 3.589635e+01 1.450238e-01 3.097448e-01 4.093244e-01 4.957743e-01 5.003620e-01 4.260600e-01 2.718829e-01 8.748477e-02 -1.124200e-01 -2.674466e-01 -4.705590e-01 -4.201328e-01 1.713018e-02 2.350246e-02 3.132972e-02 2.798172e-02 -3.957554e-02 -5.093380e-02 -1.100692e-02 1.681604e-01 2.878570e-01 1.151425e-01 -3.318575e-01 -2.808605e-01 6.984156e-02 2.199650e-02
<VARIANCE> 39
 1.348278e+01 1.142141e+01 1.335509e+01 1.143654e+01 1.194528e+01 1.291855e+01 1.096801e+01 9.999610e+00 8.966130e+00 6.493734e+00 7.089714e+00 3.714964e+00 5.720083e+01 1.479302e-01 2.749524e-01 4.116459e-01 5.544987e-01 7.412300e-01 8.638621e-01 9.780692e-01 1.011727e+00 9.722049e-01 9.244285e-01 7.790983e-01 4.854838e-01 6.587114e-02 2.498620e-02 4.996664e-02 8.246811e-02 1.134138e-01 1.334916e-01 1.625580e-01 1.553281e-01 1.346042e-01 1.429190e-01 1.056715e-01 1.249207e-01 6.386875e-02 1.023894e-02
<GCONST> 6.126499e+01
<MIXTURE> 12 7.189811e-03
<MEAN> 39
 -1.978323e+01 -6.308737e+00 -5.854047e+00 -4.750688e+00 -3.077574e+00 -3.664846e+00 -1.586057e+00 -1.262053e+00 -5.457415e-01 -5.736556e-01 -8.456742e-02 -3.565707e-01 3.750975e+01 6.692155e-03 2.833248e-02 4.074054e-02 4.925855e-02 6.139177e-02 7.607673e-02 8.854498e-02 9.149982e-02 7.856053e-02 5.028073e-02 -2.358500e-02 -8.106817e-02 -2.778253e-03 -1.710950e-02 -3.067478e-02 -9.716112e-03 2.483919e-02 9.405930e-02 1.003745e-01 2.369236e-02 -7.285421e-02 -9.977496e-02 -1.045305e-01 -7.508408e-02 3.037349e-02 -5.064788e-03
<VARIANCE> 39
 5.559283e+00 2.507580e+00 3.762506e+00 4.396848e+00 5.411921e+00 6.155088e+00 5.697470e+00 6.332148e+00 7.312994e+00 5.666400e+00 5.751241e+00 2.055139e+00 1.641333e+01 6.851512e-02 1.565736e-01 2.772567e-01 4.198526e-01 5.590313e-01 6.742655e-01 7.710586e-01 8.386620e-01 8.715120e-01 7.706757e-01 6.152375e-01 3.126871e-01 2.258528e-02 1.208213e-02 2.688791e-02 4.719677e-02 6.714714e-02 8.818220e-02 1.046465e-01 1.171858e-01 1.279172e-01 1.352293e-01 1.159218e-01 1.112854e-01 4.482631e-02 4.021084e-03
<GCONST> 4.162284e+01
<MIXTURE> 13 8.153178e-03
<MEAN> 39
 -1.868838e+01 -1.142105e+01 -1.117172e+01 -9.810549e+00 -6.377237e+00 -6.919489e+00 -1.329178e+00 -7.077090e-01 1.140710e+00 -2.459638e+00 -7.961023e-01 7.127304e-01 3.518345e+01 1.065573e-01 2.039000e-01 2.082918e-01 2.309588e-01 2.561144e-01 3.158501e-01 3.742907e-01 3.582891e-01 1.915060e-01 -7.272556e-02 -4.428941e-01 -4.934122e-01 4.842506e-03 5.225030e-02 8.825956e-02 1.030777e-01 7.615470e-02 2.723155e-02 -1.034176e-01 -3.102817e-01 -4.762222e-01 -3.213235e-01 1.163454e-01 2.599315e-01 1.405922e-01 3.384942e-02
<VARIANCE> 39
 1.224111e+01 1.048847e+01 1.122040e+01 1.121331e+01 1.153722e+01 1.229468e+01 1.054487e+01 1.033440e+01 8.088690e+00 6.258348e+00 7.368063e+00 3.932485e+00 5.461816e+01 1.304937e-01 2.524403e-01 3.932883e-01 5.466269e-01 7.257668e-01 8.540153e-01 9.330976e-01 9.453307e-01 9.402209e-01 9.060562e-01 7.447405e-01 4.963253e-01 5.854095e-02 2.359924e-02 4.584328e-02 7.727278e-02 1.074460e-01 1.375072e-01 1.546351e-01 1.519461e-01 1.403433e-01 1.352199e-01 1.055186e-01 1.252587e-01 7.242078e-02 9.784620e-03
<GCONST> 5.985837e+01
<MIXTURE> 14 7.305733e-03
<MEAN> 39
 -1.781233e+01 -1.640994e+01 -1.078690e+01 -1.554370e+01 -7.363117e+00 -1.044527e+01 -2.431609e+00 -1.629699e+00 2.196329e+00 1.724692e+00 2.475127e+00 1.948534e+00 4.274517e+01 4.748853e-02 6.089073e-02 6.558441e-02 7.453518e-02 5.197766e-02 9.245493e-03 -5.011072e-02 -1.032787e-01 -1.051622e-01 -4.969906e-02 -2.342118e-04 2.136503e-02 -1.805850e-02 1.500389e-02 3.479598e-02 2.238515e-02 6.690384e-02 4.646320e-02 3.491224e-02 -1.975903e-02 -3.811669e-02 -5.460537e-02 -5.722110e-02 -1.819059e-02 -1.653546e-02 3.921366e-03
<VARIANCE> 39
 3.006665e+01 2.821006e+01 5.092056e+01 3.078265e+01 5.496931e+01 3.471381e+01 3.475570e+01 3.995452e+01 4.046075e+01 2.504959e+01 2.064814e+01 2.056929e+01 1.799921e+02 7.496686e-02 1.628231e-01 2.579367e-01 3.333095e-01 4.220058e-01 5.000726e-01 5.373722e-01 5.645863e-01 5.454370e-01 5.278433e-01 4.660784e-01 3.688939e-01 2.745782e-02 1.429735e-02 3.242945e-02 5.198448e-02 6.909409e-02 8.583041e-02 9.844358e-02 1.037033e-01 1.130191e-01 1.078625e-01 1.009116e-01 8.987461e-02 7.044789e-02 4.785863e-03
<GCONST> 6.507390e+01
<MIXTURE> 15 1.058890e-02
<MEAN> 39
 -1.934325e+01 -1.270122e+01 -1.281714e+01 -1.213120e+01 -7.370595e+00 -8.238325e+00 -2.720839e+00 -3.149883e+00 1.273007e-01 -3.545048e-01 2.150694e+00 1.911054e+00 4.041786e+01 -7.658055e-02 -4.193930e-02 -2.892619e-02 -1.696961e-01 -2.599620e-02 -1.240192e-01 -6.353177e-02 -2.558769e-02 8.235574e-04 6.948280e-02 4.922645e-02 8.071449e-03 4.911840e-01 -3.188597e-02 6.082742e-02 1.693781e-01 9.551881e-02 7.591611e-02 -4.237836e-02 -1.071640e-01 -8.193173e-02 -5.333848e-02 -6.327916e-02 -2.408502e-02 4.720421e-02 1.002833e-01
<VARIANCE> 39
 3.471938e+01 2.948985e+01 2.873721e+01 2.619928e+01 2.386532e+01 2.201972e+01 1.973272e+01 1.807251e+01 1.557027e+01 1.346506e+01 1.215077e+01 8.041761e+00 9.197473e+01 3.695635e+00 3.388659e+00 3.458534e+00 3.410558e+00 3.350631e+00 3.168326e+00 3.180107e+00 2.961404e+00 2.700531e+00 2.396386e+00 1.985500e+00 1.524946e+00 4.743524e+00 2.536680e-01 2.442644e-01 2.608804e-01 2.909234e-01 2.984743e-01 2.952294e-01 2.945473e-01 2.831852e-01 2.572838e-01 2.261435e-01 2.130996e-01 1.411840e-01 2.755395e-01
<GCONST> 1.080452e+02
<MIXTURE> 16 5.364351e-03
<MEAN> 39
 -1.945225e+01 -1.300641e+01 -1.300265e+01 -1.200160e+01 -8.548965e+00 -1.027451e+01 -5.104474e+00 -5.306445e+00 -7.267551e-01 -1.175616e+00 3.262288e+00 5.469464e+00 3.752980e+01 1.995318e-01 3.393703e-01 3.704165e-01 3.528837e-01 2.841252e-01 1.458479e-01 1.972997e-02 -1.020939e-01 -2.448682e-01 -2.841813e-01 -3.314687e-01 -2.268783e-01 5.046166e-02 1.584231e-01 2.503524e-01 2.880062e-01 2.875378e-01 2.708976e-01 2.246839e-01 1.671644e-01 6.758544e-02 -7.624681e-02 -6.645451e-02 -2.612132e-01 -4.790674e-01 7.286358e-02
<VARIANCE> 39
 1.496914e+01 1.292979e+01 1.263148e+01 1.145530e+01 1.200071e+01 1.207136e+01 1.203796e+01 1.157272e+01 1.055114e+01 8.783953e+00 8.353187e+00 4.464345e+00 8.296445e+01 1.145230e-01 2.313447e-01 3.810411e-01 5.480019e-01 7.087560e-01 8.420681e-01 9.732664e-01 1.035476e+00 9.861760e-01 9.105612e-01 7.844901e-01 5.935358e-01 4.328293e-02 2.231202e-02 4.429583e-02 7.473372e-02 1.108242e-01 1.421439e-01 1.642274e-01 1.757111e-01 1.688707e-01 1.660474e-01 1.485772e-01 1.444214e-01 6.946395e-02 8.217378e-03
<GCONST> 6.258501e+01
<MIXTURE> 17 4.712484e-03
<MEAN> 39
 -1.799202e+01 -1.108325e+01 -1.092848e+01 -1.007408e+01 -7.197437e+00 -8.935125e+00 -4.342034e+00 -2.930091e+00 2.062346e+00 2.475074e+00 1.526097e+00 -5.416188e-01 3.626449e+01 1.868232e-01 3.478938e-01 4.188546e-01 4.365743e-01 3.896032e-01 2.741227e-01 1.334355e-01 -2.470041e-02 -1.917728e-01 -3.034438e-01 -4.091082e-01 -3.045059e-01 4.330062e-02 5.576985e-02 1.003279e-01 1.474298e-01 1.659486e-01 2.071268e-01 2.110666e-01 9.736461e-02 -2.017028e-01 -5.130761e-01 -6.094514e-01 -1.203659e-01 2.669023e-01 3.437597e-02
<VARIANCE> 39
 1.480985e+01 1.335656e+01 1.570814e+01 1.379099e+01 1.308621e+01 1.163361e+01 1.025479e+01 1.132144e+01 9.251834e+00 6.894585e+00 7.845833e+00 3.915011e+00 5.827668e+01 1.218733e-01 2.422782e-01 3.869362e-01 5.439169e-01 7.239207e-01 8.407821e-01 9.472369e-01 1.014882e+00 1.030822e+00 9.625140e-01 7.696121e-01 5.174152e-01 4.869788e-02 2.310783e-02 4.755962e-02 8.497604e-02 1.167897e-01 1.322695e-01 1.447676e-01 1.496930e-01 1.604218e-01 1.425969e-01 1.078412e-01 1.375220e-01 7.725544e-02 8.935379e-03
<GCONST> 6.165262e+01
<MIXTURE> 18 4.434709e-03
<MEAN> 39
 -1.869853e+01 -8.168410e+00 -7.102177e+00 -6.490062e+00 -3.957938e+00 -5.879915e+00 -4.718545e+00 -5.172140e+00 -3.327734e+00 -2.794815e+00 -6.245477e-01 2.012799e+00 3.643311e+01 -1.239651e-02 9.020971e-03 2.423689e-02 3.504242e-02 3.593415e-02 3.580426e-02 3.404688e-02 2.817767e-02 7.207360e-03 -8.099469e-03 -2.367259e-02 -3.528782e-02 -1.844580e-02 7.810721e-02 1.035820e-01 1.086251e-01 1.090623e-01 1.638393e-01 2.710922e-01 3.871091e-01 3.413101e-01 2.295249e-01 1.590024e-01 -5.611772e-02 -3.283837e-01 3.941159e-02
<VARIANCE> 39
 1.032078e+01 6.919666e+00 8.544194e+00 9.642907e+00 8.002366e+00 8.449476e+00 7.074679e+00 1.007360e+01 1.031743e+01 6.773888e+00 7.004841e+00 2.987628e+00 3.546586e+01 9.080634e-02 1.970079e-01 3.280836e-01 4.882059e-01 6.503398e-01 7.737412e-01 8.652029e-01 8.899471e-01 9.019598e-01 8.244214e-01 6.592078e-01 3.478419e-01 3.246193e-02 1.913707e-02 3.989365e-02 7.153032e-02 1.086639e-01 1.290973e-01 1.235594e-01 1.177968e-01 1.491049e-01 1.697276e-01 1.243301e-01 1.255628e-01 4.472430e-02 6.865093e-03
<GCONST> 5.345738e+01
<MIXTURE> 19 3.045165e-03
<MEAN> 39
 -1.506232e+01 -1.043624e+01 -8.088881e+00 -7.522871e+00 -2.950814e+00 -6.121352e+00 -4.343658e+00 -5.029165e+00 -2.440477e+00 -7.864721e-01 4.151841e-01 -6.675288e-01 3.788813e+01 1.129867e-01 1.424864e-01 5.004335e-02 -3.595003e-02 -1.822618e-02 1.481891e-01 4.624673e-01 8.078889e-01 8.403160e-01 4.834881e-01 -3.441494e-01 -7.832243e-01 1.975502e-02 3.171312e-02 6.931375e-02 3.978257e-02 -3.919438e-02 -1.177230e-01 -2.604468e-02 1.454628e-01 1.999414e-01 1.098940e-01 -1.346742e-01 -1.111184e-01 2.612304e-02 1.907440e-02
<VARIANCE> 39
 1.614043e+01 1.613527e+01 1.931955e+01 1.766342e+01 1.897808e+01 1.796254e+01 1.861134e+01 2.088144e+01 1.735774e+01 1.101331e+01 9.719582e+00 6.568638e+00 5.445531e+01 8.691253e-02 2.018317e-01 3.562278e-01 5.121609e-01 7.176563e-01 8.512086e-01 9.864430e-01 9.946526e-01 9.436402e-01 9.239010e-01 7.923819e-01 5.031691e-01 3.374103e-02 1.335468e-02 3.177911e-02 6.266362e-02 9.231838e-02 1.132060e-01 1.352331e-01 1.519479e-01 1.486554e-01 1.593313e-01 1.145692e-01 1.087954e-01 8.212708e-02 4.741962e-03
<GCONST> 6.261188e+01
<MIXTURE> 20 9.137226e-03
<MEAN> 39
 -1.897441e+01 -1.735415e+01 -1.343381e+01 -1.449157e+01 -6.572262e+00 -8.507701e+00 -2.906226e+00 -2.676106e+00 -5.762300e-01 -5.477669e+00 1.918440e+00 7.833801e+00 4.672289e+01 4.583016e-02 6.639074e-02 8.729358e-02 1.234851e-01 5.683136e-02 -3.632608e-02 -7.732160e-02 -9.135740e-02 -9.596014e-02 -7.478073e-02 -4.872793e-02 5.379245e-03 -7.525265e-02 5.710001e-02 1.311798e-01 6.757876e-02 7.258607e-02 -3.628467e-02 -1.044113e-01 -5.828718e-02 -3.996622e-02 1.150291e-01 5.249677e-01 4.729814e-02 -5.327553e-01 -2.058874e-02
<VARIANCE> 39
 3.105201e+01 3.693513e+01 4.470342e+01 4.538320e+01 4.531429e+01 5.408002e+01 4.401970e+01 3.909917e+01 3.565356e+01 2.160873e+01 2.941880e+01 1.648514e+01 1.298404e+02 3.097062e-01 6.530950e-01 9.437034e-01 1.164811e+00 1.473011e+00 1.792591e+00 1.954163e+00 1.931358e+00 1.880932e+00 1.858125e+00 1.525155e+00 1.378752e+00 1.836628e-01 5.804596e-02 1.167234e-01 1.684424e-01 2.246478e-01 2.675267e-01 3.416030e-01 3.350869e-01 3.173040e-01 3.361777e-01 2.152931e-01 2.801064e-01 1.710738e-01 2.962469e-02
<GCONST> 9.829893e+01
<MIXTURE> 21 8.049335e-03
<MEAN> 39
 -1.659174e+01 -1.050148e+01 -9.178591e+00 -8.303645e+00 -4.091949e+00 -6.449440e+00 -2.183974e+00 -3.725847e+00 -1.696264e+00 -2.717206e+00 -2.717782e-01 7.633990e-01 3.852958e+01 -3.284877e-01 -5.360482e-01 -6.751229e-01 -6.500021e-01 -5.569669e-01 -3.916086e-01 -1.345422e-01 1.006644e-01 3.675896e-01 5.380132e-01 5.011814e-01 2.721928e-01 -1.683810e-01 1.388729e-01 2.199576e-01 2.188184e-01 1.133843e-01 -1.407327e-03 -7.419416e-02 -1.507862e-01 -1.219586e-01 -7.710562e-02 -2.476404e-02 -1.085611e-02 -5.275018e-02 7.453611e-02
<VARIANCE> 39
 1.684430e+01 2.003775e+01 2.158949e+01 1.939712e+01 1.910563e+01 2.012000e+01 1.771578e+01 1.652484e+01 1.439890e+01 1.191924e+01 1.061640e+01 5.936548e+00 6.848218e+01 1.711326e-01 2.898347e-01 4.300594e-01 6.088078e-01 8.681955e-01 1.063105e+00 1.187445e+00 1.233464e+00 1.176273e+00 1.091791e+00 8.589002e-01 5.616909e-01 8.261311e-02 3.418032e-02 5.749468e-02 9.157400e-02 1.294811e-01 1.733448e-01 2.047853e-01 2.045150e-01 1.874527e-01 1.960275e-01 1.718733e-01 1.624499e-01 8.778162e-02 1.426670e-02
<GCONST> 7.251070e+01
<MIXTURE> 22 3.788887e-03
<MEAN> 39
 -2.273598e+01 -1.031244e+01 -1.058291e+01 -9.180182e+00 -7.168118e+00 -7.063642e+00 -4.197325e+00 -3.230446e+00 -5.479141e-01 -4.448065e-01 1.719195e+00 2.473351e+00 3.268410e+01 1.901677e-01 2.831668e-01 3.077246e-01 2.883583e-01 2.408627e-01 1.747823e-01 8.243910e-02 -1.618506e-02 -1.238473e-01 -2.128977e-01 -2.726669e-01 -1.763354e-01 7.597155e-02 1.228451e-01 1.548745e-01 1.544703e-01 1.119840e-01 1.175816e-01 1.172665e-01 9.348040e-02 -3.804379e-02 -1.139436e-01 -1.407343e-01 -1.238303e-01 -8.100370e-02 5.133139e-02
<VARIANCE> 39
 5.310741e+00 3.076952e+00 3.494370e+00 4.074902e+00 3.843712e+00 5.113219e+00 5.526804e+00 5.533871e+00 4.761282e+00 4.644292e+00 4.668925e+00 2.158371e+00 1.657898e+01 7.618368e-02 1.540569e-01 2.690034e-01 4.094258e-01 5.482921e-01 6.362807e-01 7.438551e-01 7.883363e-01 7.724230e-01 7.129247e-01 5.776799e-01 3.686323e-01 2.518792e-02 1.393262e-02 2.765811e-02 5.179781e-02 7.787396e-02 9.374643e-02 1.061699e-01 1.209906e-01 1.135943e-01 1.014841e-01 9.775997e-02 9.902935e-02 4.445839e-02 4.982952e-03
<GCONST> 4.006582e+01
<MIXTURE> 23 6.604744e-03
<MEAN> 39
 -1.839578e+01 -1.718309e+01 -1.544333e+01 -1.612387e+01 -1.123785e+01 -1.139224e+01 2.430781e-01 4.380731e+00 4.173237e+00 -1.015066e+00 8.502721e-01 1.335147e+00 4.840276e+01 5.988550e-02 1.945025e-01 2.752571e-01 3.538941e-01 2.270779e-01 -1.130442e-01 -5.405810e-01 -7.743288e-01 -5.279886e-01 -1.179061e-02 3.519195e-01 3.680111e-01 -8.438650e-02 6.075876e-02 2.046509e-01 2.056951e-01 2.264594e-01 3.106452e-01 1.659620e-01 -3.413337e-01 -6.991990e-01 -3.820307e-01 5.319839e-02 1.273345e-01 1.051570e-01 -3.835173e-02
<VARIANCE> 39
 2.830861e+01 3.078607e+01 3.331829e+01 3.835196e+01 4.179049e+01 4.150204e+01 4.225500e+01 3.244918e+01 3.471663e+01 2.706543e+01 2.411672e+01 1.807648e+01 1.694995e+02 5.535731e-01 9.667447e-01 1.179740e+00 1.293230e+00 1.759999e+00 2.035351e+00 2.171967e+00 2.219246e+00 2.057103e+00 2.029979e+00 1.701620e+00 1.376984e+00 4.308563e-01 7.822334e-02 1.316895e-01 1.741465e-01 2.291615e-01 2.578078e-01 3.076540e-01 3.461184e-01 3.135273e-01 3.480682e-01 2.778778e-01 2.647614e-01 2.054511e-01 5.349642e-02
<GCONST> 1.016955e+02
<MIXTURE> 24 3.931297e-03
<MEAN> 39
 -1.761506e+01 -6.251044e+00 -4.130026e+00 -2.428252e+00 -3.798325e-01 3.615228e-02 1.183157e+00 8.632533e-01 1.564371e+00 5.188087e-01 4.091263e-01 -5.090190e-01 3.073430e+01 -4.328708e-03 2.226515e-02 3.381415e-02 6.469943e-02 8.611552e-02 9.280331e-02 7.010245e-02 6.718605e-02 5.562136e-02 3.724208e-02 -1.204036e-02 -5.095441e-02 -1.522166e-02 1.086996e-02 4.495197e-03 -1.259005e-02 -4.334363e-02 -4.644541e-02 -8.478320e-02 -9.537944e-02 -1.268064e-01 -1.648177e-01 -1.316118e-01 -7.432667e-02 1.030193e-02 1.159778e-02
<VARIANCE> 39
 1.084905e+01 1.000560e+01 1.130910e+01 6.496534e+00 1.130250e+01 1.074190e+01 1.096361e+01 1.059330e+01 9.265351e+00 8.753491e+00 7.920256e+00 4.081408e+00 7.029631e+01 7.362868e-02 1.593083e-01 2.716158e-01 4.054356e-01 6.096997e-01 6.993093e-01 8.018579e-01 8.678636e-01 8.540600e-01 8.312840e-01 6.635845e-01 3.490809e-01 3.213591e-02 1.485553e-02 3.287644e-02 5.600127e-02 8.069920e-02 1.242143e-01 1.407628e-01 1.635701e-01 1.723564e-01 1.633489e-01 1.611172e-01 1.354174e-01 6.729802e-02 6.304993e-03
<GCONST> 5.518909e+01
<MIXTURE> 25 5.040342e-03
<MEAN> 39
 -8.998805e+00 -2.818441e+00 -3.888497e+00 -9.803042e+00 -9.220179e+00 -1.058134e+01 -6.975873e+00 -5.434504e+00 -2.550035e+00 -3.640788e+00 -1.121437e+00 -1.480951e+00 4.388227e+01 -2.313350e-01 1.169662e-01 2.726184e-01 4.941503e-01 4.198012e-01 2.402118e-01 1.742712e-01 -3.051209e-02 -5.693816e-02 -1.134385e-01 -1.314413e-01 -7.562575e-02 -2.336555e-01 -4.568595e-01 -4.851534e-01 -3.314192e-01 1.128763e-01 3.705585e-01 3.143725e-01 2.619573e-01 2.103614e-02 -5.119121e-03 7.173110e-02 1.328719e-01 1.976851e-01 -1.454229e-01
<VARIANCE> 39
 2.316238e+01 2.276674e+01 2.911081e+01 3.076305e+01 2.760064e+01 2.317546e+01 1.853894e+01 1.607625e+01 1.439627e+01 1.306122e+01 1.143151e+01 9.002397e+00 7.456007e+01 1.705866e+00 1.462378e+00 1.667880e+00 2.272532e+00 2.423085e+00 1.967759e+00 1.678035e+00 1.551899e+00 1.480120e+00 1.338157e+00 1.192200e+00 9.030361e-01 1.280455e+00 2.213922e-01 2.293991e-01 2.838503e-01 3.609862e-01 3.644166e-01 3.419296e-01 3.138496e-01 2.845709e-01 2.608399e-01 2.424755e-01 2.298208e-01 1.699938e-01 1.832031e-01
<GCONST> 9.939588e+01
<MIXTURE> 26 3.296241e-03
<MEAN> 39
 -1.867829e+01 -6.549854e+00 -5.759615e+00 -3.862208e+00 -1.727887e+00 -1.881566e+00 1.758749e-01 -2.325584e-01 8.032485e-01 2.371315e-01 2.648134e-01 -7.666484e-01 3.096423e+01 -1.827297e-02 4.306736e-02 8.981565e-02 1.593687e-01 1.622398e-01 1.849378e-01 1.536807e-01 1.287056e-01 1.040513e-01 5.929299e-02 -4.599015e-02 -1.181164e-01 -9.759332e-02 5.471372e-02 -9.056959e-02 -1.399908e-01 -2.246817e-01 -2.161033e-01 -2.565457e-01 -2.319016e-01 -2.188970e-01 -1.954165e-01 -1.443246e-01 -1.846411e-02 1.318218e-01 1.914870e-01
<VARIANCE> 39
 1.153089e+01 8.026666e+00 9.689268e+00 8.708760e+00 1.033589e+01 1.221052e+01 1.040206e+01 1.144235e+01 9.557573e+00 8.834641e+00 7.077068e+00 3.219521e+00 6.387744e+01 4.591264e-01 5.239472e-01 6.115199e-01 7.563202e-01 9.251885e-01 9.852321e-01 1.013903e+00 9.784768e-01 9.338507e-01 7.867644e-01 6.411685e-01 3.485145e-01 8.103116e-01 9.115429e-02 1.098054e-01 1.287270e-01 1.505543e-01 1.789609e-01 1.996076e-01 1.990515e-01 1.972301e-01 1.898050e-01 1.633906e-01 1.418414e-01 7.680212e-02 1.005994e-01
<GCONST> 7.225621e+01
<MIXTURE> 27 7.331753e-03
<MEAN> 39
 -1.871836e+01 -1.737762e+01 -1.495519e+01 -1.551966e+01 -7.041296e+00 -9.359321e+00 -5.399441e+00 -6.687281e+00 5.670182e-01 4.845019e+00 6.941421e+00 3.136767e+00 4.726796e+01 5.688993e-02 1.547430e-01 2.234318e-01 2.413991e-01 1.187223e-01 -6.024233e-02 -2.758435e-01 -4.476748e-01 -4.544634e-01 -2.044544e-01 1.572915e-01 3.106656e-01 -8.146075e-02 5.907614e-02 1.551326e-01 1.795714e-01 1.283535e-01 -5.162055e-03 -5.614529e-03 1.812546e-01 3.152524e-01 -1.582170e-02 -4.995166e-01 -4.400221e-01 -4.196371e-02 3.340333e-03
<VARIANCE> 39
 3.190842e+01 3.492278e+01 4.101390e+01 3.799008e+01 4.512049e+01 4.445806e+01 4.100037e+01 3.125570e+01 2.598895e+01 2.354556e+01 2.218837e+01 1.793805e+01 1.374786e+02 2.943227e-01 5.473745e-01 8.016289e-01 1.000403e+00 1.300354e+00 1.485663e+00 1.640774e+00 1.726238e+00 1.606690e+00 1.663962e+00 1.468176e+00 1.174454e+00 1.396007e-01 5.153311e-02 9.065538e-02 1.318737e-01 1.808637e-01 2.010116e-01 2.489863e-01 2.672394e-01 2.309591e-01 2.046574e-01 2.171991e-01 2.124291e-01 1.629042e-01 2.115362e-02
<GCONST> 9.212806e+01
<MIXTURE> 28 8.104742e-03
<MEAN> 39
 -2.024161e+01 -1.519692e+01 -1.295360e+01 -1.277660e+01 -8.448823e+00 -1.151050e+01 -2.807619e+00 -2.870443e+00 3.584670e-01 3.682409e-01 4.805378e+00 2.918933e+00 4.384958e+01 1.533543e-01 1.497050e-01 -4.195963e-02 -2.175955e-01 -2.319347e-01 -1.112618e-02 4.092710e-01 7.687172e-01 6.853988e-01 1.699349e-01 -5.552521e-01 -6.632687e-01 9.517521e-04 8.114205e-02 1.280136e-01 8.164667e-02 6.598977e-02 1.328228e-01 1.592391e-01 -6.697638e-02 -1.378243e-01 -5.066357e-02 -1.377214e-01 -2.555911e-01 2.772547e-05 2.729686e-02
<VARIANCE> 39
 2.855669e+01 2.616927e+01 2.387001e+01 2.489997e+01 2.227422e+01 1.775291e+01 1.954329e+01 1.875627e+01 1.608227e+01 1.223835e+01 9.214273e+00 6.468212e+00 1.143671e+02 1.683558e-01 2.933413e-01 4.512901e-01 6.141008e-01 7.844192e-01 9.010537e-01 9.802032e-01 9.339848e-01 9.096553e-01 9.643779e-01 8.229036e-01 5.831862e-01 7.283706e-02 2.775215e-02 4.965891e-02 8.188347e-02 1.236016e-01 1.372900e-01 1.406495e-01 1.694800e-01 1.685889e-01 1.624289e-01 1.342632e-01 1.236243e-01 7.652570e-02 1.026478e-02
<GCONST> 7.071564e+01
<MIXTURE> 29 9.332445e-03
<MEAN> 39
 -1.779058e+01 -1.674531e+01 -1.240690e+01 -1.455124e+01 -7.273357e+00 -1.026445e+01 -5.574448e+00 -4.617483e+00 1.304354e+00 3.669752e+00 4.134660e+00 1.953703e+00 4.841755e+01 1.124279e-02 -2.064276e-01 -6.350512e-02 -8.278791e-02 -3.003831e-02 -8.679777e-02 8.735475e-04 2.385539e-01 2.373762e-01 6.241876e-02 -1.006251e-01 -1.076456e-01 6.155819e-02 6.576230e-03 1.078877e-01 2.713694e-02 5.789501e-02 3.038133e-03 1.087765e-01 2.282964e-01 1.821634e-01 -1.260726e-01 -3.849813e-01 -1.946410e-01 1.171018e-02 -1.127428e-01
<VARIANCE> 39
 4.817121e+01 6.308501e+01 8.750066e+01 8.551244e+01 1.142222e+02 8.775004e+01 9.009290e+01 8.417655e+01 8.113831e+01 5.709675e+01 5.321074e+01 4.455471e+01 1.402205e+02 1.243208e+00 2.057314e+00 2.540285e+00 2.969117e+00 3.740848e+00 3.912636e+00 4.342672e+00 4.943181e+00 4.491932e+00 3.925438e+00 3.338843e+00 2.838043e+00 1.449060e+00 2.030950e-01 3.164700e-01 4.345529e-01 5.091019e-01 7.385147e-01 7.347811e-01 7.400342e-01 8.698968e-01 8.608419e-01 6.446971e-01 6.244937e-01 5.810071e-01 1.874655e-01
<GCONST> 1.335357e+02
<MIXTURE> 30 3.807618e-03
<MEAN> 39
 -1.881130e+01 -1.179163e+01 -1.138952e+01 -9.984895e+00 -5.958780e+00 -7.018789e+00 -2.979529e+00 -3.949029e+00 -6.825244e-01 -3.769341e-01 1.568194e+00 1.387076e+00 3.558915e+01 3.893599e-03 2.200003e-02 3.573869e-03 -2.842790e-02 -5.339138e-02 -6.891489e-02 -5.909474e-02 -5.373318e-02 -5.871851e-02 -5.886338e-02 -3.462547e-02 3.068177e-02 -2.465062e-02 2.880797e-01 4.505863e-01 4.923763e-01 3.879214e-01 2.286885e-01 6.505497e-02 -2.826683e-02 -8.148389e-02 -2.031986e-01 -3.117754e-01 -2.467637e-01 -1.298578e-01 1.429937e-01
<VARIANCE> 39
 1.468232e+01 1.337858e+01 1.552232e+01 1.339507e+01 1.300784e+01 1.323246e+01 1.235666e+01 1.209122e+01 1.018635e+01 8.906903e+00 8.199289e+00 4.566469e+00 6.034225e+01 1.275251e-01 2.524087e-01 4.026112e-01 5.528080e-01 7.272973e-01 8.584033e-01 9.615020e-01 1.001764e+00 9.774848e-01 9.018320e-01 7.281790e-01 4.761590e-01 4.969023e-02 3.106383e-02 4.883303e-02 8.359392e-02 1.214076e-01 1.656146e-01 1.950912e-01 2.037684e-01 2.029690e-01 1.829709e-01 1.616432e-01 1.449670e-01 7.265235e-02 1.320984e-02
<GCONST> 6.494553e+01
<MIXTURE> 31 5.687511e-03
<MEAN> 39
 -1.529970e+01 -6.902944e+00 -5.142418e+00 -4.606097e+00 -1.090666e+00 -2.842215e+00 -3.059340e-01 -1.324370e+00 6.834015e-02 -1.646692e+00 -1.981099e-01 -9.776500e-01 3.815672e+01 -1.045891e+00 -9.506310e-01 -5.175952e-01 -2.093318e-01 -2.392783e-01 8.472246e-02 2.855722e-01 2.028468e-01 4.440114e-01 2.956336e-01 2.892719e-01 2.072273e-01 -1.313694e+00 -1.686986e-02 -2.248295e-01 -4.866267e-01 -6.095712e-01 -5.514907e-01 -5.975584e-01 -4.196382e-01 -3.074235e-01 -1.969784e-01 5.364994e-03 9.759656e-02 2.362235e-01 3.772778e-01
<VARIANCE> 39
 2.574362e+01 2.417436e+01 2.713392e+01 2.172107e+01 2.028042e+01 2.528867e+01 2.077953e+01 2.089827e+01 1.715930e+01 1.502633e+01 1.106194e+01 6.444737e+00 8.762656e+01 2.573495e+00 2.841939e+00 3.325460e+00 3.091542e+00 2.924640e+00 3.181783e+00 2.739452e+00 2.366181e+00 2.126491e+00 1.777724e+00 1.422840e+00 9.906358e-01 5.757473e+00 2.739352e-01 2.947835e-01 3.932046e-01 3.154444e-01 3.122183e-01 3.615702e-01 3.453569e-01 3.302420e-01 3.201303e-01 2.803104e-01 2.259058e-01 1.486255e-01 7.164336e-01
<GCONST> 1.078445e+02
<MIXTURE> 32 5.619965e-03
<MEAN> 39
 -1.062525e+01 -8.393143e+00 -8.304035e+00 -7.707819e+00 -6.856833e+00 -5.603639e+00 -4.481201e+00 -3.297726e+00 -2.274596e+00 -1.298302e+00 -4.276582e-01 5.919094e-01 -6.422528e+00 1.604711e-05 -2.466956e-05 3.239833e-05 -3.756893e-05 3.746811e-05 -3.546465e-05 3.383203e-05 -3.313364e-05 2.982281e-05 -2.498184e-05 1.654466e-05 -1.014767e-05 -6.431281e-06 -3.612548e-04 2.415229e-04 -9.032732e-05 2.611652e-05 2.219494e-07 7.867160e-05 -1.287445e-04 -6.122104e-07 2.832898e-04 -2.249992e-04 -8.235245e-05 3.203169e-04 1.960710e-04
<VARIANCE> 39
 4.355356e-01 2.817596e-01 2.917285e-01 2.786574e-01 2.594995e-01 2.527556e-01 2.307981e-01 2.324331e-01 2.110891e-01 1.820830e-01 1.588534e-01 1.196717e-01 2.345859e+00 4.629866e-03 6.319351e-03 7.957405e-03 9.450205e-03 1.077513e-02 1.155886e-02 1.270435e-02 1.348473e-02 1.304911e-02 1.178684e-02 1.001301e-02 7.552556e-03 9.523377e-03 7.812097e-04 1.098516e-03 1.455124e-03 1.776137e-03 2.040286e-03 2.206554e-03 2.447087e-03 2.615273e-03 2.536757e-03 2.294958e-03 1.958092e-03 1.479870e-03 1.262614e-03
<GCONST> -8.805482e+01
<MIXTURE> 33 1.320651e-02
<MEAN> 39
 -1.846187e+01 -1.415910e+01 -1.242854e+01 -1.153962e+01 -6.280276e+00 -1.043825e+01 -6.540983e+00 -3.375111e+00 4.513961e+00 2.060757e-01 1.097999e-01 1.964622e+00 4.239406e+01 1.036783e-01 2.368841e-01 2.978573e-01 3.276467e-01 2.241753e-01 5.146004e-02 -1.689016e-01 -3.899788e-01 -4.284751e-01 -2.515495e-01 -6.126112e-02 8.091751e-02 -4.222605e-02 -8.328375e-04 1.425978e-02 -1.983427e-03 -4.597519e-02 -7.069650e-02 1.119791e-01 3.200447e-01 -3.201377e-02 -4.967569e-01 -1.133493e-01 2.406559e-01 5.201127e-02 4.665344e-04
<VARIANCE> 39
 2.472397e+01 2.512283e+01 2.529820e+01 2.679502e+01 2.406393e+01 2.229473e+01 1.921884e+01 2.088154e+01 1.327378e+01 1.329575e+01 1.181343e+01 8.163133e+00 9.941278e+01 1.567897e-01 3.111469e-01 4.738654e-01 6.411371e-01 8.197911e-01 9.478775e-01 1.095820e+00 1.100627e+00 1.106500e+00 1.029775e+00 8.938295e-01 6.899179e-01 7.292816e-02 2.644125e-02 5.213644e-02 8.553148e-02 1.241492e-01 1.393417e-01 1.670139e-01 1.555122e-01 1.811733e-01 1.468835e-01 1.391234e-01 1.408162e-01 9.340604e-02 1.070142e-02
<GCONST> 7.278053e+01
<MIXTURE> 34 7.875179e-03
<MEAN> 39
 -1.769598e+01 -1.002983e+01 -1.026889e+01 -9.656160e+00 -6.966479e+00 -7.880335e+00 -4.099542e+00 -3.262041e+00 1.890859e-01 -1.155711e+00 -2.537303e-01 1.129467e+00 3.579471e+01 1.598266e-01 2.279769e-01 2.035308e-01 1.763830e-01 1.424206e-01 1.016060e-01 5.278567e-02 4.119605e-02 3.137951e-02 -2.504032e-02 -2.272426e-01 -2.757744e-01 5.573750e-02 -3.931626e-02 -3.912437e-02 1.449688e-02 5.893075e-02 8.342548e-02 8.383352e-02 5.320825e-02 -9.705789e-02 -1.995922e-01 -4.444507e-02 1.351790e-01 4.361700e-02 -1.138756e-02
<VARIANCE> 39
 1.070349e+01 7.814235e+00 8.756436e+00 7.478102e+00 7.732204e+00 8.038252e+00 7.185496e+00 7.843923e+00 6.596150e+00 5.486814e+00 5.688579e+00 3.143348e+00 5.334192e+01 7.571421e-02 1.598896e-01 2.852915e-01 4.140440e-01 5.505458e-01 6.494275e-01 7.161511e-01 7.254799e-01 7.224193e-01 7.050040e-01 6.506599e-01 3.869143e-01 2.826950e-02 1.050385e-02 2.613568e-02 5.135820e-02 7.461886e-02 8.869930e-02 9.948155e-02 1.035905e-01 1.017924e-01 1.049877e-01 8.394492e-02 9.530142e-02 5.323692e-02 3.863657e-03
<GCONST> 4.642429e+01
<MIXTURE> 35 1.109005e-02
<MEAN> 39
 -1.792954e+01 -1.069337e+01 -1.007758e+01 -9.034810e+00 -6.464553e+00 -9.129039e+00 -4.773939e+00 -6.272989e+00 -4.335976e+00 -6.281349e+00 6.820886e-01 5.243724e+00 3.877914e+01 9.270673e-02 1.565178e-01 9.689380e-02 4.449025e-02 3.352036e-02 7.577337e-02 1.674865e-01 2.299056e-01 2.047967e-01 5.650242e-02 -2.838484e-01 -3.506136e-01 -1.322277e-02 -5.049559e-03 -6.078496e-02 -1.234452e-01 -1.470788e-01 -6.052557e-02 8.757176e-03 9.265791e-02 2.207318e-01 4.464996e-01 6.411729e-01 1.056531e-01 -4.339096e-01 2.518083e-02
<VARIANCE> 39
 1.597472e+01 1.454900e+01 1.499890e+01 1.532822e+01 1.592221e+01 1.675169e+01 1.479461e+01 1.604440e+01 1.397466e+01 9.240413e+00 9.790694e+00 5.633388e+00 8.265112e+01 1.897404e-01 3.420974e-01 5.013715e-01 6.780182e-01 8.527023e-01 9.758479e-01 1.064430e+00 1.152407e+00 1.126871e+00 1.057231e+00 8.652824e-01 6.079857e-01 1.127464e-01 3.688337e-02 6.278253e-02 9.604131e-02 1.350195e-01 1.703230e-01 1.780501e-01 1.878638e-01 1.933327e-01 1.954056e-01 1.326445e-01 1.535649e-01 8.838620e-02 1.917178e-02
<GCONST> 7.133051e+01
<MIXTURE> 36 8.139516e-03
<MEAN> 39
 -1.941026e+01 -1.316356e+01 -1.253102e+01 -1.022163e+01 -6.410597e+00 -9.038568e+00 -5.972129e+00 -8.498775e+00 -3.582962e+00 -1.007883e+00 4.696389e+00 5.081155e+00 3.901828e+01 1.600437e-01 3.259538e-01 3.705420e-01 3.365783e-01 2.091280e-01 2.446115e-02 -1.231547e-01 -2.525467e-01 -3.520250e-01 -3.411610e-01 -2.571433e-01 -3.150159e-02 1.141636e-02 7.420912e-02 9.236281e-02 2.803479e-02 -1.151224e-01 -1.439019e-01 -2.283115e-02 2.883286e-01 5.646924e-01 4.248751e-01 1.043202e-02 -3.544676e-01 -3.599252e-01 4.425562e-02
<VARIANCE> 39
 1.780937e+01 1.633339e+01 1.481167e+01 1.334825e+01 1.421665e+01 1.492142e+01 1.371067e+01 1.171298e+01 1.083735e+01 8.924239e+00 8.303685e+00 4.920815e+00 9.810734e+01 1.685008e-01 3.068300e-01 4.575176e-01 6.303986e-01 8.203214e-01 9.300963e-01 1.038374e+00 1.121907e+00 1.059166e+00 9.507399e-01 8.456182e-01 6.595314e-01 7.539596e-02 3.184990e-02 5.798590e-02 9.023812e-02 1.216289e-01 1.419741e-01 1.668677e-01 1.783941e-01 1.453467e-01 1.450073e-01 1.321350e-01 1.381411e-01 8.377309e-02 1.285063e-02
<GCONST> 6.748582e+01
<MIXTURE> 37 1.158576e-02
<MEAN> 39
 -1.889669e+01 -1.441105e+01 -1.260874e+01 -1.289881e+01 -8.458218e+00 -9.209215e+00 -7.436841e-01 -7.905309e-02 -3.394645e-02 -4.909018e+00 5.681022e-01 4.170517e+00 4.119230e+01 5.756638e-02 1.110724e-01 1.058999e-01 1.249212e-01 9.304103e-02 2.552598e-02 -6.426282e-02 -1.145803e-01 -7.982584e-02 -2.612185e-02 -7.609162e-02 -6.911974e-02 -3.782843e-02 3.951319e-02 7.179577e-02 8.842833e-02 1.679511e-01 1.951184e-01 -5.150910e-03 -3.571282e-01 -4.778197e-01 -4.024971e-02 4.855565e-01 2.021298e-01 -2.064298e-01 1.658235e-02
<VARIANCE> 39
 2.310258e+01 2.379508e+01 2.645973e+01 2.706470e+01 2.202802e+01 2.516282e+01 1.972865e+01 1.717577e+01 1.576226e+01 1.186444e+01 1.241473e+01 7.551040e+00 9.327580e+01 1.372391e-01 2.805983e-01 4.508522e-01 6.124571e-01 7.871101e-01 9.137230e-01 1.014977e+00 1.036450e+00 9.771513e-01 1.006401e+00 8.349563e-01 6.287144e-01 5.927909e-02 2.817449e-02 5.711987e-02 9.420606e-02 1.332693e-01 1.618966e-01 1.924639e-01 1.778705e-01 1.533459e-01 1.778118e-01 1.325992e-01 1.507047e-01 8.913562e-02 1.143646e-02
<GCONST> 7.229322e+01
<MIXTURE> 38 6.198722e-03
<MEAN> 39
 -1.769264e+01 -1.133179e+01 -1.058568e+01 -9.913025e+00 -6.096379e+00 -8.416659e+00 -3.821068e+00 -5.072865e+00 -2.072081e+00 -3.155335e+00 6.901887e-01 2.868317e+00 3.851720e+01 3.871996e-01 6.734027e-01 7.915822e-01 7.748677e-01 5.920404e-01 3.097794e-01 -1.761303e-02 -3.257026e-01 -5.713938e-01 -6.487037e-01 -6.353451e-01 -3.495674e-01 1.198792e-01 7.156157e-03 1.578596e-02 1.475094e-02 9.803358e-03 -1.895626e-02 -1.177399e-02 -2.999288e-03 2.715136e-02 8.018032e-02 1.815097e-01 7.012387e-02 -1.266823e-01 1.237490e-02
<VARIANCE> 39
 1.432983e+01 1.497288e+01 1.552905e+01 1.416205e+01 1.389325e+01 1.367358e+01 1.284636e+01 1.279264e+01 1.094051e+01 8.089471e+00 8.802984e+00 4.862172e+00 8.263013e+01 1.096173e-01 2.119972e-01 3.495881e-01 5.085586e-01 7.114398e-01 8.581263e-01 9.520652e-01 9.804801e-01 9.247207e-01 8.999306e-01 7.579926e-01 5.300888e-01 4.229381e-02 1.840992e-02 4.164991e-02 7.222400e-02 1.008743e-01 1.239984e-01 1.382674e-01 1.463647e-01 1.459086e-01 1.449513e-01 1.133762e-01 1.289782e-01 7.337575e-02 6.333635e-03
<GCONST> 6.129358e+01
<MIXTURE> 39 9.669290e-03
<MEAN> 39
 -1.875513e+01 -1.058155e+01 -1.114064e+01 -9.591519e+00 -6.803531e+00 -8.391518e+00 -4.939489e+00 -6.200711e+00 -2.452444e+00 -1.918330e+00 2.075095e+00 3.262564e+00 3.643490e+01 -7.945543e-02 -1.396704e-01 -2.086284e-01 -1.854287e-01 -3.562684e-02 1.954473e-02 1.452318e-01 2.402937e-01 3.220900e-01 2.946013e-01 -1.626277e-02 -2.263375e-01 2.093510e-01 -2.552086e-02 2.004391e-03 3.050329e-02 -3.502539e-02 5.922858e-03 3.112691e-03 1.451622e-01 2.481461e-01 1.907885e-01 6.495945e-02 -9.598406e-02 -1.806443e-01 1.019170e-01
<VARIANCE> 39
 1.603814e+01 1.406037e+01 1.432041e+01 1.289105e+01 1.313092e+01 1.341854e+01 1.214748e+01 1.187292e+01 1.067533e+01 8.921521e+00 8.187456e+00 4.680143e+00 6.560207e+01 1.390797e+00 1.554156e+00 1.603606e+00 1.740807e+00 1.904083e+00 1.900926e+00 1.926413e+00 1.895629e+00 1.767367e+00 1.562459e+00 1.326249e+00 9.486451e-01 1.393714e+00 9.600597e-02 1.144562e-01 1.370158e-01 1.611499e-01 1.846042e-01 1.980626e-01 1.955200e-01 1.935098e-01 1.965202e-01 1.678483e-01 1.555997e-01 8.917306e-02 7.456587e-02
<GCONST> 8.560638e+01
<MIXTURE> 40 1.192421e-02
<MEAN> 39
 -1.413596e+01 -7.635387e+00 -6.846908e+00 -6.113560e+00 -3.605024e+00 -6.210379e+00 -3.372573e+00 -4.365783e+00 -2.606224e+00 -3.771907e+00 -2.196875e+00 -1.398931e+00 3.834512e+01 7.008177e-02 1.549559e-01 1.937571e-01 2.090271e-01 1.974405e-01 1.577138e-01 9.914206e-02 3.485484e-02 -2.647643e-02 -8.043250e-02 -1.755223e-01 -1.833028e-01 -2.446495e-03 -6.323095e-02 -1.101841e-01 -1.431959e-01 -1.710175e-01 -1.461715e-01 -8.749601e-02 -3.618428e-02 -8.843821e-03 6.636303e-02 1.562393e-01 2.557240e-01 2.150901e-01 -7.250808e-03
<VARIANCE> 39
 1.447701e+01 1.678745e+01 1.440886e+01 1.269901e+01 1.296917e+01 1.242832e+01 1.247967e+01 1.537797e+01 1.247667e+01 1.097495e+01 1.001129e+01 4.663344e+00 6.504531e+01 1.025129e-01 2.261078e-01 3.714750e-01 5.124605e-01 6.654207e-01 7.860210e-01 8.856382e-01 9.526855e-01 9.551305e-01 9.281300e-01 8.045766e-01 5.082135e-01 4.222392e-02 1.879769e-02 4.215191e-02 7.307157e-02 9.883985e-02 1.237630e-01 1.414820e-01 1.573513e-01 1.743381e-01 1.675282e-01 1.531687e-01 1.490786e-01 7.718657e-02 7.684120e-03
<GCONST> 6.252818e+01
<MIXTURE> 41 9.943887e-03
<MEAN> 39
 -1.905436e+01 -1.387818e+01 -1.120195e+01 -1.345640e+01 -9.654194e+00 -1.472502e+01 -7.641744e+00 -5.280321e+00 8.311061e-01 4.074701e-01 4.745910e+00 7.038790e+00 4.345304e+01 5.755032e-02 4.894999e-02 -1.082341e-02 -3.848273e-02 -4.400996e-02 4.370700e-03 5.530653e-02 8.890604e-02 9.450674e-02 3.647352e-02 -1.103009e-01 -1.344149e-01 1.772162e-02 9.902501e-03 -7.247512e-03 -6.417982e-02 2.201240e-02 1.996308e-01 4.621082e-01 4.561069e-01 2.098567e-01 -8.128767e-02 -1.319906e-01 -2.762026e-01 -4.595066e-01 2.503475e-03
<VARIANCE> 39
 2.870375e+01 3.074872e+01 2.802504e+01 3.198838e+01 3.715274e+01 2.527637e+01 2.421292e+01 2.570546e+01 2.236944e+01 1.779800e+01 1.901415e+01 1.034215e+01 1.016656e+02 4.443343e-01 6.625484e-01 8.774539e-01 1.121359e+00 1.410515e+00 1.500570e+00 1.566761e+00 1.585444e+00 1.503883e+00 1.482453e+00 1.349532e+00 1.035159e+00 3.716582e-01 5.823907e-02 8.856173e-02 1.209990e-01 1.918030e-01 2.288648e-01 2.036601e-01 2.225446e-01 2.465242e-01 2.375332e-01 1.982069e-01 2.265868e-01 1.266665e-01 3.075107e-02
<GCONST> 8.990597e+01
<MIXTURE> 42 1.070013e-02
<MEAN> 39
 -2.240359e+01 -1.474182e+01 -1.329563e+01 -1.296736e+01 -6.565977e+00 -9.873001e+00 -2.262619e+00 -3.354618e+00 3.524541e-01 -2.098704e+00 2.691180e+00 4.893573e+00 4.395131e+01 1.092961e-01 2.222836e-01 2.565176e-01 3.059856e-01 1.949103e-01 1.724344e-04 -2.290706e-01 -3.627743e-01 -2.966937e-01 -1.198229e-01 -3.724904e-02 2.391906e-02 6.715444e-02 8.596194e-02 8.339343e-02 7.053280e-02 4.544688e-02 -5.463244e-02 -5.089738e-02 -9.488723e-02 -2.530453e-02 3.085881e-02 1.904518e-01 2.405676e-02 -1.975324e-01 -2.744313e-02
<VARIANCE> 39
 3.140448e+01 2.910994e+01 2.771705e+01 2.595033e+01 2.364853e+01 2.391600e+01 2.063291e+01 2.040914e+01 1.546828e+01 1.206033e+01 1.075880e+01 6.621172e+00 1.172348e+02 5.148731e-01 5.949883e-01 6.671563e-01 7.938240e-01 9.228535e-01 1.061889e+00 1.167651e+00 1.125562e+00 1.067482e+00 1.016959e+00 8.781273e-01 6.570222e-01 6.922196e-01 5.445677e-02 7.302643e-02 9.060066e-02 1.202090e-01 1.355015e-01 1.566618e-01 1.676730e-01 1.588968e-01 1.489198e-01 1.249109e-01 1.265644e-01 8.352448e-02 3.701084e-02
<GCONST> 7.995627e+01
<MIXTURE> 43 8.593427e-03
<MEAN> 39
 -1.865927e+01 -1.018736e+01 -9.836006e+00 -6.960858e+00 -5.072826e+00 -8.066941e+00 -6.320416e+00 -8.452151e+00 -3.466365e+00 -5.880691e-01 2.902384e+00 1.829157e+00 3.749513e+01 -8.193239e-03 -4.778134e-02 -1.225701e-01 -1.482485e-01 -1.138289e-01 -4.578506e-02 7.799681e-02 1.941259e-01 2.586079e-01 2.331519e-01 3.338430e-03 -1.485671e-01 -1.832485e-02 3.941210e-02 -2.602294e-02 -1.375045e-01 -3.393995e-01 -2.271135e-01 -1.884099e-02 3.708313e-01 5.893318e-01 3.406360e-01 -1.360733e-01 -2.501433e-01 -2.865981e-02 6.055454e-02
<VARIANCE> 39
 1.870424e+01 1.779231e+01 1.762563e+01 1.476234e+01 1.681199e+01 1.652963e+01 1.518762e+01 1.382013e+01 1.317889e+01 9.249975e+00 8.625390e+00 4.815520e+00 7.605516e+01 1.892293e-01 3.021822e-01 4.398110e-01 6.213461e-01 7.987337e-01 8.926650e-01 1.010891e+00 1.055277e+00 9.993107e-01 9.011715e-01 7.909878e-01 5.149854e-01 1.125755e-01 7.638638e-02 1.109104e-01 1.458415e-01 1.689730e-01 2.074207e-01 2.236656e-01 2.232327e-01 1.936213e-01 2.198351e-01 1.620855e-01 1.580944e-01 9.122417e-02 5.091641e-02
<GCONST> 7.402454e+01
<MIXTURE> 44 1.181761e-02
<MEAN> 39
 -1.957319e+01 -1.474786e+01 -1.361758e+01 -1.227964e+01 -7.352879e+00 -7.430083e+00 -1.050826e+00 -3.041163e+00 -8.812543e-01 4.893918e-01 3.331954e+00 1.147316e+00 3.892533e+01 1.713095e-01 3.375470e-01 4.113380e-01 4.002479e-01 2.330908e-01 -3.322671e-02 -3.242005e-01 -5.396475e-01 -5.228467e-01 -3.079483e-01 -5.617768e-02 1.726381e-01 2.656253e-02 5.886167e-02 1.343973e-01 1.533116e-01 1.014783e-01 -4.261604e-03 -2.094181e-01 -3.481213e-01 -1.574044e-01 6.068335e-02 -1.433965e-01 -1.141476e-01 2.037533e-01 2.732454e-02
<VARIANCE> 39
 1.948072e+01 1.798830e+01 1.739777e+01 1.510918e+01 1.571034e+01 1.527461e+01 1.153934e+01 1.208237e+01 9.842432e+00 8.191138e+00 8.352318e+00 5.115953e+00 9.870741e+01 1.301182e-01 2.482458e-01 3.939275e-01 5.457504e-01 7.308599e-01 8.542743e-01 9.346262e-01 9.452903e-01 8.958841e-01 9.048602e-01 7.723901e-01 5.765158e-01 5.293269e-02 2.188251e-02 4.239932e-02 7.231150e-02 1.059763e-01 1.315394e-01 1.449271e-01 1.345665e-01 1.487202e-01 1.332297e-01 1.219250e-01 1.320698e-01 7.456645e-02 8.127319e-03
<GCONST> 6.346204e+01
<MIXTURE> 45 7.764581e-03
<MEAN> 39
 -2.354519e+01 -8.842212e+00 -8.881191e+00 -7.059587e+00 -4.808924e+00 -3.885990e+00 -1.556748e+00 -1.818146e+00 -8.034984e-01 -1.410625e+00 9.635749e-02 1.085222e+00 3.305442e+01 3.195722e-02 4.880187e-02 5.649726e-02 5.527748e-02 5.082021e-02 4.385197e-02 2.563118e-02 1.250061e-02 4.912432e-03 -1.535524e-02 -5.183660e-02 -4.873268e-02 1.252114e-02 3.313170e-02 3.818403e-02 2.896631e-02 -1.828352e-02 -8.409903e-02 -1.743215e-01 -2.062103e-01 -1.624632e-01 -5.177831e-02 5.649465e-02 9.066319e-02 6.853186e-02 1.325156e-02
<VARIANCE> 39
 1.985723e+00 1.705818e+00 2.243240e+00 3.454321e+00 4.345921e+00 5.083637e+00 5.246372e+00 5.806858e+00 6.046940e+00 5.036184e+00 4.673648e+00 2.160439e+00 8.277557e+00 6.827233e-02 1.480815e-01 2.654319e-01 3.998731e-01 5.330599e-01 6.226484e-01 7.463651e-01 8.004825e-01 8.034137e-01 7.216522e-01 5.571928e-01 3.657756e-01 2.013595e-02 1.344053e-02 2.692045e-02 4.610904e-02 7.187974e-02 9.721048e-02 1.042872e-01 1.159150e-01 1.256001e-01 1.283530e-01 1.119153e-01 1.043195e-01 5.223298e-02 4.145719e-03
<GCONST> 3.740657e+01
<MIXTURE> 46 8.666896e-03
<MEAN> 39
 -2.298100e+01 -1.145745e+01 -1.277281e+01 -1.240296e+01 -6.286517e+00 -1.144020e+01 -2.662887e+00 -5.832828e+00 -8.084223e-01 -7.432763e-01 2.894777e+00 5.183178e+00 4.563934e+01 -1.119599e-01 5.604141e-02 1.493428e-01 7.499650e-02 1.286139e-01 3.974209e-02 7.170362e-02 2.531067e-02 3.271816e-03 -7.150439e-02 -7.806056e-02 -8.185671e-02 3.893707e-01 3.493987e-01 -4.511160e-02 1.311791e-01 9.514809e-02 -7.237005e-02 2.631108e-01 -7.647623e-02 2.335441e-01 9.901729e-02 -5.049195e-03 -1.058917e-01 -3.760568e-01 -4.516723e-01
<VARIANCE> 39
 4.379009e+01 4.026035e+01 3.039261e+01 2.884721e+01 3.026488e+01 2.806357e+01 2.451123e+01 2.182983e+01 1.944463e+01 1.588251e+01 1.489617e+01 6.805917e+00 1.350141e+02 1.902648e+00 1.474418e+00 1.321015e+00 1.381320e+00 1.539902e+00 1.578546e+00 1.632062e+00 1.616926e+00 1.502891e+00 1.331718e+00 1.169370e+00 8.793648e-01 2.481502e+00 4.655402e-01 4.309221e-01 3.415995e-01 3.673823e-01 4.138468e-01 3.906138e-01 3.946755e-01 3.552312e-01 3.383580e-01 2.807102e-01 2.820100e-01 1.288725e-01 7.543083e-01
<GCONST> 1.059147e+02
<MIXTURE> 47 7.722884e-03
<MEAN> 39
 -1.017279e+01 -5.705654e+00 -5.752508e+00 -8.839958e+00 -6.986656e+00 -8.597463e+00 -5.720672e+00 -5.305599e+00 -2.691958e+00 -3.155851e+00 -6.529660e-01 -1.353156e+00 4.304790e+01 4.559343e-02 1.361519e-01 1.044546e-01 -6.001201e-04 -9.132871e-02 -7.745585e-02 -1.197638e-02 6.111238e-02 6.377712e-02 1.327361e-02 -6.112219e-02 -8.436643e-02 -9.476903e-03 -7.982013e-02 -6.761964e-02 -6.804910e-03 1.035598e-01 1.595280e-01 1.054616e-01 7.915752e-02 -2.458562e-02 -5.996412e-02 -9.601010e-02 -5.325862e-02 7.887984e-02 -8.691661e-03
<VARIANCE> 39
 2.362517e+01 2.817765e+01 2.575567e+01 2.664070e+01 2.214800e+01 1.894982e+01 1.587158e+01 1.457205e+01 1.179928e+01 1.100749e+01 1.036560e+01 6.865303e+00 7.392633e+01 3.478073e-01 4.842179e-01 6.913280e-01 8.750647e-01 1.081768e+00 1.142724e+00 1.113600e+00 1.107504e+00 1.081290e+00 1.080739e+00 9.640603e-01 6.991408e-01 2.617803e-01 4.287548e-02 6.844378e-02 1.145239e-01 1.422230e-01 1.596016e-01 1.830798e-01 1.820471e-01 1.785841e-01 1.733513e-01 1.649430e-01 1.544648e-01 1.216967e-01 2.441049e-02
<GCONST> 7.803688e+01
<MIXTURE> 48 7.544970e-03
<MEAN> 39
 -1.756012e+01 -1.271963e+01 -1.361092e+01 -1.417110e+01 -7.685605e+00 -7.634429e+00 -2.760517e+00 -2.779643e+00 7.033926e-01 8.695345e-01 2.086379e+00 2.335799e-01 4.771975e+01 4.548876e-02 1.220984e-01 1.840213e-01 1.495959e-01 1.005040e-01 1.141420e-01 1.973170e-02 2.683768e-02 -3.362489e-02 -9.740992e-02 -1.232034e-01 -1.355385e-01 1.477454e-02 -1.397748e-02 1.059863e-01 3.048763e-01 2.995225e-01 8.245917e-02 -1.072391e-01 -1.495586e-01 -1.589350e-01 -1.694435e-01 -2.610248e-01 -4.475024e-02 2.210555e-01 -4.229613e-01
<VARIANCE> 39
 7.996017e+01 5.227268e+01 4.667096e+01 4.405507e+01 3.945588e+01 3.410619e+01 3.055074e+01 2.487229e+01 2.161052e+01 1.734715e+01 1.508813e+01 8.933641e+00 1.182971e+02 8.317767e-01 9.329108e-01 1.048171e+00 1.142854e+00 1.180098e+00 1.218761e+00 1.268145e+00 1.277575e+00 1.184491e+00 1.092352e+00 9.289454e-01 7.117139e-01 1.102067e+00 4.713990e-01 4.373904e-01 4.361090e-01 4.924823e-01 4.718765e-01 4.352054e-01 4.163658e-01 3.825716e-01 3.486494e-01 2.854333e-01 2.636936e-01 1.543814e-01 5.136810e-01
<GCONST> 1.050870e+02
<MIXTURE> 49 8.056432e-03
<MEAN> 39
 -1.816447e+01 -1.706683e+01 -1.116252e+01 -1.449840e+01 -5.819501e+00 -8.480011e+00 -3.244252e+00 -3.452859e+00 9.944246e-01 -2.005038e-01 1.641758e+00 2.344514e+00 4.830973e+01 6.413726e-02 8.942472e-02 3.166958e-02 2.592075e-02 -2.325583e-02 -1.457107e-02 5.268286e-03 2.327570e-02 -1.576577e-02 -1.240579e-02 -5.330327e-02 -3.683300e-02 -1.965189e-01 1.170195e-02 3.336025e-02 7.171248e-03 4.554479e-02 8.115730e-03 -8.156727e-03 -4.586788e-03 7.306090e-03 -5.287029e-02 -1.778279e-02 1.952726e-02 -1.947155e-02 -2.011693e-02
<VARIANCE> 39
 6.583456e+01 8.356412e+01 1.030338e+02 1.126236e+02 1.163403e+02 1.044576e+02 1.054593e+02 9.635444e+01 8.115190e+01 7.658913e+01 6.231699e+01 4.616763e+01 1.180331e+02 2.890058e-01 5.136902e-01 6.525695e-01 7.893700e-01 8.949889e-01 1.011579e+00 1.078869e+00 1.113635e+00 1.038306e+00 9.128109e-01 8.006517e-01 6.113972e-01 3.391036e-01 4.104962e-02 7.260716e-02 9.711365e-02 1.262646e-01 1.416233e-01 1.678726e-01 1.810399e-01 1.857344e-01 1.723648e-01 1.439292e-01 1.315610e-01 9.673874e-02 2.396836e-02
<GCONST> 9.627473e+01
<MIXTURE> 50 8.284093e-03
<MEAN> 39
 -1.823418e+01 -1.750222e+01 -1.670243e+01 -1.299389e+01 -2.343306e+00 -5.443398e+00 -6.843202e+00 -6.347240e+00 3.225422e+00 3.522509e+00 2.115367e+00 -1.194132e-01 4.416873e+01 3.039815e-02 7.542138e-02 7.523760e-02 1.253704e-01 6.796579e-02 -3.128441e-02 -8.882403e-02 -1.078884e-01 -8.050137e-02 -1.299992e-02 -2.898065e-02 -1.174172e-02 -4.463973e-02 1.563764e-02 2.003086e-01 2.576516e-01 -5.519859e-03 -3.998784e-01 -2.927215e-01 2.848775e-01 2.961946e-01 -2.676837e-01 -3.788726e-01 2.125708e-02 2.306373e-01 -2.461080e-02
<VARIANCE> 39
 3.361563e+01 3.316476e+01 3.826098e+01 3.689524e+01 2.820826e+01 3.271943e+01 2.720384e+01 2.333825e+01 2.267105e+01 1.865609e+01 1.668740e+01 1.522584e+01 1.065444e+02 3.505769e-01 6.880245e-01 8.690075e-01 1.015607e+00 1.332880e+00 1.439437e+00 1.637552e+00 1.597699e+00 1.428104e+00 1.391108e+00 1.176033e+00 1.039716e+00 3.728378e-01 6.093742e-02 1.043540e-01 1.445262e-01 1.664922e-01 1.710601e-01 2.348142e-01 2.330864e-01 2.174021e-01 2.216310e-01 2.135055e-01 1.857861e-01 1.640993e-01 3.973672e-02
<GCONST> 9.069920e+01
<MIXTURE> 51 8.397607e-03
<MEAN> 39
 -1.910136e+01 -1.246240e+01 -1.277468e+01 -1.195866e+01 -9.141261e+00 -1.067721e+01 -3.125734e+00 -4.587034e+00 -5.917438e-01 -9.606456e-01 2.791704e+00 3.475358e+00 4.370606e+01 -4.694808e-02 -2.207549e-01 -3.936439e-01 -3.385501e-01 -5.424228e-02 3.557712e-01 7.114747e-01 8.693870e-01 7.299489e-01 3.257104e-01 -3.724368e-01 -7.237906e-01 -3.111770e-02 -3.960137e-02 -8.432611e-02 -5.334248e-02 1.656993e-02 1.495774e-01 1.101638e-01 -5.208194e-02 3.487525e-02 9.854933e-02 5.826856e-02 -1.905683e-02 -1.008492e-01 -9.445312e-03
<VARIANCE> 39
 2.364340e+01 2.001354e+01 1.732285e+01 1.686569e+01 1.534241e+01 1.472695e+01 1.516464e+01 1.374902e+01 1.279212e+01 9.555514e+00 7.525273e+00 5.640245e+00 1.327196e+02 1.506864e-01 2.498409e-01 3.941793e-01 5.830286e-01 7.768642e-01 8.584731e-01 9.279789e-01 9.381214e-01 9.477037e-01 9.769793e-01 8.161071e-01 5.550895e-01 6.469689e-02 2.314220e-02 4.148070e-02 7.167631e-02 1.014253e-01 1.098777e-01 1.287399e-01 1.508662e-01 1.380711e-01 1.493579e-01 1.178106e-01 1.116941e-01 7.256572e-02 9.295810e-03
<GCONST> 6.528017e+01
<MIXTURE> 52 8.424235e-03
<MEAN> 39
 -1.796114e+01 -1.478997e+01 -1.436627e+01 -1.574826e+01 -9.582431e+00 -1.009401e+01 -1.763966e+00 4.954908e-01 4.055476e+00 2.180236e-01 1.876350e-01 9.766183e-01 4.502817e+01 9.620725e-02 -2.819604e-01 -5.910828e-01 -7.244837e-01 -4.535540e-01 7.681382e-02 7.310456e-01 1.241384e+00 1.144360e+00 4.200783e-01 -5.259890e-01 -8.399193e-01 1.535698e-01 -1.155103e-02 5.956028e-02 1.454528e-01 2.427724e-01 1.937765e-01 3.853710e-02 -2.084347e-01 -4.109665e-01 -3.942636e-01 -6.952243e-02 2.178151e-01 1.548973e-01 -2.620506e-02
<VARIANCE> 39
 3.062349e+01 3.200011e+01 3.241131e+01 3.288280e+01 3.530957e+01 3.197178e+01 2.843938e+01 2.493913e+01 2.301395e+01 1.882833e+01 1.404780e+01 1.354926e+01 1.273282e+02 5.321426e-01 7.779731e-01 1.001280e+00 1.231933e+00 1.515358e+00 1.637396e+00 1.706291e+00 1.719788e+00 1.595890e+00 1.678789e+00 1.425123e+00 1.045416e+00 5.209928e-01 6.244723e-02 1.060683e-01 1.463724e-01 1.857959e-01 2.190770e-01 2.390076e-01 2.460561e-01 2.573821e-01 2.573317e-01 2.106433e-01 1.754646e-01 1.548318e-01 3.675453e-02
<GCONST> 9.318683e+01
<MIXTURE> 53 1.052306e-02
<MEAN> 39
 -1.901506e+01 -1.318787e+01 -1.211499e+01 -1.183042e+01 -8.421194e+00 -1.127963e+01 -5.399361e+00 -4.729712e+00 -4.552918e-02 -2.805941e+00 1.969629e+00 6.147315e+00 4.029193e+01 5.882964e-04 -3.956634e-02 -9.718553e-02 -1.101441e-01 -1.195585e-01 -1.332026e-01 -1.083381e-01 -2.742773e-03 1.760058e-01 2.955535e-01 1.654397e-01 -5.444282e-02 -2.347075e-02 4.681215e-02 5.579120e-02 4.237837e-02 8.909225e-02 1.589290e-01 2.236260e-01 1.867714e-01 1.640558e-02 -7.587021e-02 2.285343e-01 2.725552e-02 -4.687014e-01 2.197153e-02
<VARIANCE> 39
 1.792891e+01 1.644020e+01 1.500863e+01 1.518040e+01 1.490475e+01 1.503129e+01 1.351582e+01 1.417656e+01 1.192771e+01 8.831463e+00 8.299531e+00 5.070400e+00 1.013117e+02 1.049921e-01 2.135209e-01 3.565509e-01 5.133078e-01 6.678154e-01 7.830227e-01 8.728521e-01 9.203885e-01 8.912541e-01 8.541644e-01 7.369904e-01 5.579276e-01 3.976996e-02 2.093341e-02 4.270740e-02 7.549188e-02 1.058685e-01 1.301417e-01 1.471864e-01 1.502064e-01 1.510058e-01 1.533929e-01 1.212014e-01 1.237869e-01 7.008529e-02 7.564916e-03
<GCONST> 6.251785e+01
<MIXTURE> 54 9.290738e-03
<MEAN> 39
 -2.079109e+01 -1.398327e+01 -1.360830e+01 -1.171129e+01 -7.525024e+00 -7.470046e+00 -3.759303e+00 -3.594835e+00 9.876232e-01 1.100523e+00 2.805401e+00 1.964035e+00 3.454111e+01 -3.157668e-02 -1.110371e-01 -2.028252e-01 -2.012825e-01 -9.336542e-02 6.858083e-02 2.540661e-01 4.138849e-01 4.513543e-01 3.220984e-01 -7.900771e-02 -3.687637e-01 -1.790651e-02 1.076469e-01 1.983580e-01 2.152749e-01 1.192159e-01 -2.328103e-02 -1.232770e-01 -3.393743e-02 -6.043532e-02 -2.221766e-01 -2.711566e-01 -1.036191e-01 1.044413e-01 4.420333e-02
<VARIANCE> 39
 1.137865e+01 1.067128e+01 9.136184e+00 8.019161e+00 7.943928e+00 8.658998e+00 7.964716e+00 8.069171e+00 6.502305e+00 5.487992e+00 5.878934e+00 3.529639e+00 7.210622e+01 9.384400e-02 1.791464e-01 3.028939e-01 4.587052e-01 5.946890e-01 7.069597e-01 7.970925e-01 8.098292e-01 7.882617e-01 7.583514e-01 6.649105e-01 4.488493e-01 3.603974e-02 1.733976e-02 3.303931e-02 6.018280e-02 8.951708e-02 1.007507e-01 1.148592e-01 1.290942e-01 1.265893e-01 1.208853e-01 1.053713e-01 1.103792e-01 6.364702e-02 6.539931e-03
<GCONST> 5.202671e+01
<MIXTURE> 55 8.323237e-03
<MEAN> 39
 -2.068308e+01 -1.130019e+01 -1.167314e+01 -1.111453e+01 -8.541531e+00 -7.807064e+00 -3.708550e+00 -4.160829e+00 -2.497909e+00 -1.978754e+00 2.642944e+00 4.171813e+00 3.362954e+01 8.674861e-02 6.414733e-02 -2.059490e-02 -4.280067e-02 -2.533854e-04 5.181613e-02 1.153796e-01 1.921495e-01 2.081166e-01 1.125083e-01 -1.356440e-01 -2.449540e-01 3.650837e-02 5.241274e-02 7.206227e-02 1.060347e-01 1.488232e-01 1.599077e-01 2.679191e-02 -4.883991e-02 4.735559e-02 2.317237e-01 1.169117e-01 -1.812206e-01 -2.730508e-01 2.533160e-02
<VARIANCE> 39
 8.100306e+00 4.664277e+00 4.400464e+00 4.152457e+00 4.543833e+00 5.641814e+00 5.758344e+00 6.240366e+00 5.088717e+00 5.041083e+00 5.128602e+00 2.630981e+00 3.527140e+01 8.549801e-02 1.637828e-01 2.811469e-01 4.079402e-01 5.319730e-01 6.116031e-01 7.184581e-01 7.426373e-01 7.280504e-01 7.061736e-01 6.163579e-01 4.025756e-01 3.126942e-02 1.564419e-02 3.142611e-02 5.417079e-02 7.507492e-02 8.957815e-02 1.016657e-01 1.150238e-01 1.181017e-01 1.032057e-01 1.027940e-01 1.062455e-01 5.408152e-02 5.688144e-03
<GCONST> 4.374595e+01
<MIXTURE> 56 9.290515e-03
<MEAN> 39
 -1.928026e+01 -9.021111e+00 -8.921665e+00 -8.864042e+00 -8.335550e+00 -9.124493e+00 -4.132730e+00 -3.069385e+00 -1.095596e+00 -2.484395e+00 2.441014e-01 2.263351e+00 3.327655e+01 -7.544624e-02 -1.641774e-01 -2.679152e-01 -2.869247e-01 -1.898838e-01 8.607621e-03 2.722668e-01 5.238735e-01 6.118175e-01 4.644048e-01 2.376037e-02 -3.246368e-01 -3.608239e-02 -2.657523e-02 -9.265381e-02 -1.111689e-01 1.242635e-02 2.638225e-01 2.795819e-01 3.035737e-02 -1.726626e-01 -7.009161e-02 9.810183e-02 7.691959e-02 -5.639999e-02 2.568000e-03
<VARIANCE> 39
 9.655210e+00 5.491462e+00 5.011755e+00 5.974655e+00 6.334276e+00 7.341023e+00 7.819136e+00 8.245686e+00 7.334146e+00 6.839176e+00 6.515790e+00 3.066313e+00 3.360653e+01 8.910163e-02 1.803368e-01 3.035985e-01 4.553626e-01 6.321756e-01 7.392418e-01 8.331755e-01 8.525560e-01 8.199183e-01 7.942109e-01 7.068779e-01 4.091061e-01 3.434288e-02 1.704311e-02 3.476819e-02 6.080863e-02 8.559357e-02 9.645131e-02 1.074399e-01 1.388849e-01 1.281271e-01 1.338904e-01 1.303272e-01 1.253726e-01 5.884335e-02 6.629814e-03
<GCONST> 4.996262e+01
<MIXTURE> 57 8.195882e-03
<MEAN> 39
 -2.225967e+01 -9.394858e+00 -9.174059e+00 -7.749529e+00 -6.096240e+00 -6.842402e+00 -5.345831e+00 -6.007020e+00 -3.622541e+00 -2.438389e+00 1.682647e+00 3.848495e+00 3.271878e+01 4.487266e-02 6.721814e-02 6.900613e-02 6.160709e-02 5.015834e-02 4.497459e-02 4.444379e-02 3.435497e-02 5.129172e-03 -3.694675e-02 -8.947507e-02 -7.896893e-02 1.456475e-02 2.940177e-02 -1.566285e-03 -5.838555e-02 -1.149740e-01 -6.987046e-02 5.170568e-02 2.483828e-01 3.618166e-01 3.420770e-01 1.603575e-01 -1.167727e-01 -2.644238e-01 1.415405e-02
<VARIANCE> 39
 5.202754e+00 3.293668e+00 3.197728e+00 3.996409e+00 4.618593e+00 6.101765e+00 5.572121e+00 5.891057e+00 5.941694e+00 5.171908e+00 4.938328e+00 2.119290e+00 1.644645e+01 7.610837e-02 1.597764e-01 2.784489e-01 4.152424e-01 5.415360e-01 6.267703e-01 7.478971e-01 7.958870e-01 8.028470e-01 7.369000e-01 6.012225e-01 3.905602e-01 2.368902e-02 1.400947e-02 2.826509e-02 4.742315e-02 7.218546e-02 9.486443e-02 1.103033e-01 1.126550e-01 1.116995e-01 1.215227e-01 1.088340e-01 1.027790e-01 4.856784e-02 4.542341e-03
<GCONST> 4.112031e+01
<MIXTURE> 58 7.655680e-03
<MEAN> 39
 -1.862050e+01 -8.788659e+00 -8.367521e+00 -7.187669e+00 -3.970835e+00 -3.935831e+00 -1.086307e+00 -2.038534e-01 1.559091e+00 1.080518e+00 -5.725919e-01 -2.117032e+00 3.571202e+01 3.263540e-02 9.273004e-02 1.366856e-01 1.709721e-01 1.689863e-01 1.541545e-01 1.029960e-01 3.769631e-02 -1.908302e-02 -5.095167e-02 -9.953980e-02 -9.737238e-02 -2.993650e-03 1.423913e-02 2.654673e-02 5.081007e-02 4.226770e-02 -2.384227e-02 -1.314099e-01 -2.220232e-01 -3.544523e-01 -3.894313e-01 -3.312542e-01 5.506313e-02 3.397416e-01 8.966634e-03
<VARIANCE> 39
 1.428600e+01 5.701425e+00 8.434117e+00 7.524359e+00 9.059913e+00 8.870811e+00 8.869232e+00 1.022536e+01 1.013601e+01 6.754919e+00 8.321831e+00 3.137977e+00 3.276220e+01 8.111398e-02 1.790394e-01 3.118899e-01 4.521886e-01 5.874791e-01 6.876668e-01 8.021934e-01 8.793659e-01 8.993400e-01 8.000774e-01 6.428214e-01 3.889983e-01 2.871655e-02 1.675685e-02 3.583521e-02 6.079496e-02 8.508977e-02 1.120007e-01 1.312937e-01 1.431927e-01 1.499491e-01 1.518085e-01 1.178128e-01 1.286008e-01 5.451118e-02 5.557782e-03
<GCONST> 5.246878e+01
<MIXTURE> 59 1.025533e-02
<MEAN> 39
 -1.870271e+01 -1.304600e+01 -1.189162e+01 -1.070458e+01 -8.064862e+00 -1.070890e+01 -6.314533e+00 -6.741017e+00 -1.342066e+00 1.731251e+00 5.171048e+00 2.973849e+00 3.986383e+01 6.059483e-02 1.145919e-01 1.617037e-01 1.782927e-01 8.261495e-02 -1.581589e-01 -4.144623e-01 -5.169288e-01 -3.292540e-01 2.934064e-02 2.683456e-01 2.105534e-01 1.961374e-03 9.858375e-03 1.526449e-02 -1.865624e-02 -4.598976e-02 7.847541e-02 2.248920e-01 3.163343e-01 3.069918e-01 9.032295e-02 -3.490301e-01 -3.941351e-01 -7.019097e-02 8.093152e-03
<VARIANCE> 39
 2.071484e+01 1.930241e+01 1.572808e+01 1.326772e+01 1.332720e+01 1.277081e+01 1.262288e+01 1.155897e+01 9.664058e+00 8.596992e+00 7.606837e+00 4.252250e+00 1.058669e+02 1.089208e-01 2.221183e-01 3.731094e-01 5.232021e-01 6.768191e-01 7.688186e-01 8.439359e-01 8.575104e-01 8.793287e-01 8.682026e-01 7.256855e-01 5.372161e-01 3.898132e-02 1.893255e-02 3.956338e-02 6.990168e-02 9.655385e-02 1.131672e-01 1.320164e-01 1.486236e-01 1.366777e-01 1.254380e-01 1.193633e-01 1.220053e-01 6.474960e-02 6.763597e-03
<GCONST> 6.056506e+01
<MIXTURE> 60 8.017653e-03
<MEAN> 39
 -1.861064e+01 -1.112550e+01 -1.069957e+01 -9.117113e+00 -5.725037e+00 -6.297552e+00 -2.490577e+00 -4.532442e+00 -3.068371e+00 -3.277264e+00 9.940104e-01 2.622289e+00 3.528928e+01 3.057230e-02 1.171908e-01 2.113508e-01 2.299734e-01 8.735388e-02 -2.215588e-01 -6.231180e-01 -9.528987e-01 -8.889665e-01 -4.067252e-01 3.372142e-01 6.830820e-01 -8.722769e-03 4.889565e-02 6.888688e-02 5.249736e-02 -1.186976e-02 -6.849851e-02 -1.707375e-01 -1.545310e-01 4.530819e-02 2.536624e-01 2.397211e-01 -6.992118e-03 -1.441059e-01 3.036774e-02
<VARIANCE> 39
 1.255286e+01 1.026330e+01 1.093160e+01 1.038683e+01 1.118398e+01 1.126188e+01 9.399070e+00 1.122018e+01 9.633864e+00 6.746459e+00 7.699101e+00 4.415017e+00 5.468391e+01 9.816858e-02 2.060879e-01 3.482125e-01 5.031278e-01 6.789777e-01 7.796205e-01 7.945760e-01 7.382752e-01 7.428437e-01 7.974505e-01 6.673523e-01 3.481629e-01 3.890195e-02 1.843926e-02 3.836406e-02 6.881790e-02 1.035450e-01 1.339873e-01 1.343989e-01 1.342734e-01 1.534382e-01 1.562185e-01 1.153721e-01 1.297897e-01 7.171723e-02 7.200368e-03
<GCONST> 5.669862e+01
<MIXTURE> 61 8.397977e-03
<MEAN> 39
 -1.745862e+01 -1.526144e+01 -1.385666e+01 -1.355484e+01 -7.850824e+00 -8.942575e+00 -3.309124e+00 -3.422146e+00 2.816382e+00 5.412043e+00 3.120331e+00 -1.879444e+00 4.252642e+01 3.328888e-02 1.635960e-02 -5.990606e-02 -1.085133e-01 -9.502853e-02 6.295393e-03 1.447789e-01 2.777264e-01 2.960870e-01 1.452910e-01 -1.594341e-01 -2.789409e-01 -3.319274e-02 1.513986e-03 7.993927e-02 1.412540e-01 1.153904e-01 4.814105e-02 -3.439151e-02 -5.957492e-02 -3.621344e-02 -2.987631e-01 -6.562913e-01 -9.595867e-02 4.757057e-01 4.388679e-03
<VARIANCE> 39
 2.620761e+01 2.504949e+01 2.957128e+01 2.739152e+01 2.805720e+01 2.170827e+01 2.187708e+01 2.172324e+01 2.195723e+01 1.244204e+01 1.336217e+01 8.957077e+00 9.839051e+01 1.344420e-01 2.780986e-01 4.448041e-01 5.949998e-01 7.804489e-01 8.599265e-01 9.772183e-01 1.044659e+00 1.013539e+00 1.015417e+00 8.300909e-01 6.842752e-01 5.719083e-02 2.883317e-02 5.816775e-02 9.481198e-02 1.319922e-01 1.546894e-01 1.707119e-01 1.902274e-01 2.066765e-01 2.133706e-01 1.464953e-01 1.619920e-01 1.026396e-01 1.131467e-02
<GCONST> 7.434317e+01
<MIXTURE> 62 9.783442e-03
<MEAN> 39
 -1.867051e+01 -1.051193e+01 -1.139154e+01 -9.920926e+00 -6.787734e+00 -7.849732e+00 -2.755416e+00 -3.740912e+00 -7.917302e-01 -1.968278e+00 5.387924e-01 1.635211e+00 3.637996e+01 -1.443956e-02 4.995764e-02 4.127235e-02 8.040062e-02 1.177473e-01 1.283433e-01 1.228419e-01 9.996159e-02 8.694746e-02 3.300502e-02 -1.546785e-01 -2.264949e-01 2.333558e-02 -1.411598e-01 -1.060253e-01 -4.247541e-03 -7.612255e-02 1.912077e-02 -9.028721e-02 -1.150943e-01 -6.552874e-02 2.834576e-02 1.452775e-01 1.853029e-01 7.529962e-02 2.131835e-01
<VARIANCE> 39
 1.748630e+01 1.578915e+01 1.543153e+01 1.466786e+01 1.373798e+01 1.476986e+01 1.276863e+01 1.217567e+01 1.120119e+01 9.681968e+00 8.647398e+00 4.843922e+00 6.757869e+01 4.004262e-01 5.001098e-01 6.211143e-01 7.393942e-01 8.627307e-01 9.518619e-01 1.041472e+00 1.063155e+00 1.031927e+00 9.523490e-01 8.269395e-01 5.542583e-01 4.050342e-01 2.291055e-01 2.305302e-01 2.470252e-01 2.590806e-01 2.722623e-01 2.790412e-01 2.755296e-01 2.548457e-01 2.551386e-01 2.200634e-01 1.959893e-01 1.199947e-01 2.591566e-01
<GCONST> 8.262753e+01
<MIXTURE> 63 8.041271e-03
<MEAN> 39
 -1.452690e+01 -6.937821e+00 -5.873258e+00 -5.786916e+00 -2.752720e+00 -6.169065e+00 -3.995220e+00 -7.155880e+00 -5.684761e+00 -6.640280e+00 -2.484887e+00 5.190576e-01 4.063311e+01 -1.495715e-01 -1.928719e-01 -2.354391e-01 -2.018226e-01 -1.185704e-01 -4.638881e-02 1.085618e-01 2.003325e-01 2.716362e-01 2.836000e-01 1.702468e-01 3.278412e-02 -2.430309e-02 1.457115e-02 -7.527664e-02 -1.652996e-01 -3.344483e-01 -3.780503e-01 -2.854379e-01 -5.053468e-02 2.706589e-01 4.393547e-01 4.821630e-01 2.871781e-01 -1.320687e-02 6.199677e-02
<VARIANCE> 39
 2.144861e+01 2.617438e+01 2.959421e+01 2.467260e+01 2.367589e+01 2.517920e+01 2.360538e+01 2.240246e+01 1.826984e+01 1.544353e+01 1.419716e+01 8.204713e+00 7.527311e+01 5.414617e-01 7.139090e-01 8.676097e-01 1.097067e+00 1.444630e+00 1.517408e+00 1.476507e+00 1.489813e+00 1.457219e+00 1.410640e+00 1.184853e+00 7.682833e-01 3.959999e-01 8.562800e-02 1.129910e-01 1.527736e-01 1.885885e-01 2.300187e-01 2.428669e-01 2.602054e-01 2.612956e-01 2.474073e-01 2.186918e-01 2.110812e-01 1.147788e-01 4.756522e-02
<GCONST> 8.881582e+01
<MIXTURE> 64 5.997565e-03
<MEAN> 39
 -1.986173e+01 -8.252597e+00 -4.135892e+00 -8.183057e+00 -1.582473e+00 -2.504748e+00 -1.832111e+00 -4.770598e+00 -4.306816e+00 -1.803700e+00 -3.197802e+00 7.091648e-01 4.105025e+01 6.706417e-02 1.341584e-01 1.811464e-01 1.982076e-01 2.166820e-01 1.895284e-01 1.319761e-01 6.106295e-02 -1.100928e-02 -4.982790e-02 -1.150284e-01 -1.278751e-01 2.053668e-02 1.625138e-02 2.235840e-02 3.036269e-02 7.953895e-02 1.815551e-02 -2.922307e-02 -4.529929e-03 5.673516e-02 7.123028e-02 1.051672e-02 3.381898e-02 -2.890666e-02 6.319657e-03
<VARIANCE> 39
 3.467181e+00 5.940019e+00 7.290923e+00 9.700496e+00 9.881436e+00 1.222389e+01 9.846274e+00 1.183921e+01 1.089530e+01 1.111709e+01 8.053586e+00 4.585114e+00 4.516519e+00 6.551754e-02 1.459032e-01 2.462953e-01 4.013208e-01 5.169085e-01 6.331050e-01 7.337965e-01 7.632834e-01 8.562139e-01 8.079013e-01 5.428704e-01 2.812688e-01 2.122585e-02 1.331868e-02 3.073681e-02 4.969930e-02 7.743660e-02 1.005115e-01 1.165795e-01 1.317116e-01 1.421511e-01 1.526843e-01 1.402464e-01 1.042062e-01 5.065236e-02 4.118443e-03
<GCONST> 4.729980e+01
<MIXTURE> 65 8.992315e-03
<MEAN> 39
 -1.675685e+01 -1.446298e+01 -1.086479e+01 -1.164319e+01 -3.707217e+00 -8.014931e+00 -4.047920e+00 -6.240372e+00 -1.565875e+00 -9.096089e-01 1.316283e+00 2.196949e+00 4.157460e+01 1.372208e-02 -1.273865e-02 -1.092889e-01 -1.905587e-01 -2.006090e-01 -5.849223e-02 1.952904e-01 4.061905e-01 4.187750e-01 2.090320e-01 -1.249895e-01 -2.704236e-01 -2.544263e-02 -1.976598e-02 1.795027e-02 -1.063163e-02 -7.308017e-02 -2.735744e-01 -1.749996e-01 3.847104e-02 2.212722e-01 1.047576e-01 2.809345e-02 8.488601e-02 1.390918e-02 -5.630447e-04
<VARIANCE> 39
 1.770761e+01 1.952893e+01 2.697914e+01 2.040802e+01 1.878003e+01 1.945463e+01 1.844300e+01 1.553399e+01 1.322635e+01 1.023266e+01 9.287239e+00 6.493711e+00 9.705029e+01 9.598709e-02 2.027967e-01 3.429757e-01 4.820389e-01 6.443381e-01 7.705970e-01 8.485298e-01 8.522875e-01 8.106288e-01 8.355396e-01 7.222944e-01 5.418844e-01 3.541268e-02 1.763254e-02 3.814228e-02 6.949153e-02 9.831305e-02 1.064218e-01 1.322374e-01 1.477137e-01 1.382514e-01 1.397598e-01 1.166123e-01 1.188290e-01 8.207405e-02 5.887711e-03
<GCONST> 6.321666e+01
<MIXTURE> 66 1.190204e-02
<MEAN> 39
 -1.730814e+01 -1.345466e+01 -1.252974e+01 -1.260456e+01 -8.122103e+00 -8.394642e+00 -6.365716e-01 -2.762579e+00 -1.160441e+00 2.672111e-01 2.788519e+00 1.523768e-01 4.110597e+01 -6.362361e-02 -1.541838e-02 9.860586e-02 1.897091e-01 1.294917e-01 -7.509020e-02 -3.918678e-01 -5.814073e-01 -4.626306e-01 -1.101400e-01 3.458235e-01 4.495603e-01 -6.696792e-02 -6.326068e-02 -3.806730e-02 2.701341e-02 9.135953e-02 9.308667e-02 -9.145468e-02 -3.578056e-01 -1.606243e-01 1.195019e-01 -1.047084e-01 -6.664912e-02 2.677272e-01 -1.610094e-02
<VARIANCE> 39
 2.069652e+01 1.973838e+01 2.033110e+01 1.791203e+01 1.787690e+01 1.669032e+01 1.307055e+01 1.368466e+01 1.163721e+01 8.571909e+00 8.982486e+00 5.724807e+00 8.942589e+01 1.295656e-01 2.515330e-01 4.092724e-01 5.675056e-01 7.652963e-01 8.800763e-01 9.455478e-01 9.294542e-01 9.180602e-01 9.576056e-01 8.347250e-01 6.119019e-01 5.427302e-02 2.154342e-02 4.292408e-02 7.485254e-02 1.063062e-01 1.297792e-01 1.461110e-01 1.339077e-01 1.511929e-01 1.384217e-01 1.137380e-01 1.317829e-01 8.136907e-02 8.438716e-03
<GCONST> 6.523976e+01
<MIXTURE> 67 1.062569e-02
<MEAN> 39
 -1.705637e+01 -1.217248e+01 -1.084928e+01 -1.174192e+01 -8.411733e+00 -9.947832e+00 -1.042098e+00 9.869835e-02 1.061149e-01 -4.793610e+00 -5.862057e-01 1.862684e+00 4.202858e+01 -8.889097e-02 -1.116185e-01 -1.145188e-01 -9.238868e-02 -1.141004e-01 -1.139553e-01 -1.409414e-01 -1.197651e-01 -4.112262e-04 1.343949e-01 2.618254e-01 2.021129e-01 -7.924426e-02 -6.710039e-02 -1.080058e-01 -9.789137e-02 3.867272e-02 1.761112e-01 7.850315e-02 -3.216693e-01 -5.123359e-01 -6.753454e-02 4.713570e-01 3.277628e-01 3.902753e-02 -1.501952e-02
<VARIANCE> 39
 2.130761e+01 2.327621e+01 2.278146e+01 2.531434e+01 2.186823e+01 2.158072e+01 1.895644e+01 1.726226e+01 1.603754e+01 1.125543e+01 1.368794e+01 7.973458e+00 9.513572e+01 1.574874e-01 3.129393e-01 4.781471e-01 6.562785e-01 8.307600e-01 9.609779e-01 1.034531e+00 1.088259e+00 1.017926e+00 1.049693e+00 9.020818e-01 6.433586e-01 7.155605e-02 2.628904e-02 5.312437e-02 8.689488e-02 1.230217e-01 1.511213e-01 1.768742e-01 1.714441e-01 1.551005e-01 1.800231e-01 1.301942e-01 1.682684e-01 9.747826e-02 1.110441e-02
<GCONST> 7.251582e+01
<MIXTURE> 68 1.065503e-02
<MEAN> 39
 -2.136348e+01 -1.378363e+01 -1.161803e+01 -1.228137e+01 -6.232409e+00 -9.869414e+00 -3.231983e+00 -3.984536e+00 -1.025851e+00 -2.409523e+00 2.732480e+00 4.351925e+00 4.279313e+01 -7.205364e-03 1.065034e-01 1.914067e-01 1.598107e-01 -1.958974e-03 -2.097501e-01 -4.058192e-01 -5.936896e-01 -5.386027e-01 -2.211897e-01 3.602141e-01 5.588996e-01 9.927821e-02 3.544420e-02 -2.758005e-02 -9.324427e-02 -6.300102e-02 -1.071611e-01 -2.950957e-02 3.729073e-03 6.609061e-02 1.904241e-01 2.534806e-01 1.043996e-02 -1.656782e-01 -2.210777e-02
<VARIANCE> 39
 3.053916e+01 2.787303e+01 2.775174e+01 2.544878e+01 2.348996e+01 2.166190e+01 1.981647e+01 1.888653e+01 1.541799e+01 1.163987e+01 1.055433e+01 5.747986e+00 1.004265e+02 4.499421e-01 5.295089e-01 6.391568e-01 7.793339e-01 9.361653e-01 1.066933e+00 1.193474e+00 1.169699e+00 1.085590e+00 1.045629e+00 8.855854e-01 6.667727e-01 5.190973e-01 5.990214e-02 7.533512e-02 9.696378e-02 1.274624e-01 1.441668e-01 1.580961e-01 1.696446e-01 1.608692e-01 1.585050e-01 1.289632e-01 1.309224e-01 7.995666e-02 4.016086e-02
<GCONST> 7.934982e+01
<MIXTURE> 69 9.897499e-03
<MEAN> 39
 -1.717506e+01 -1.186799e+01 -1.114407e+01 -1.068766e+01 -6.564747e+00 -1.090101e+01 -5.502367e+00 -3.129733e+00 3.296429e+00 -9.983331e-02 -4.789571e-01 6.825337e-01 4.121650e+01 -8.884992e-02 -5.901244e-02 -8.830903e-04 5.756687e-02 3.540658e-02 -1.026202e-02 -1.936792e-01 -4.076548e-01 -3.918608e-01 -1.149168e-01 3.103691e-01 3.952990e-01 -8.464760e-02 -8.250049e-02 -1.323201e-01 -1.304350e-01 -1.123722e-01 -4.399008e-02 1.825378e-01 2.277608e-01 -9.808750e-02 -4.145543e-01 -8.690562e-02 3.107434e-01 1.948070e-01 -1.473649e-02
<VARIANCE> 39
 1.949954e+01 2.147968e+01 2.078904e+01 2.312075e+01 2.145746e+01 1.820514e+01 1.658064e+01 1.839701e+01 1.088762e+01 1.080523e+01 1.061017e+01 7.120971e+00 8.736463e+01 1.674177e-01 3.157331e-01 4.686936e-01 6.582687e-01 8.474630e-01 9.613161e-01 1.052896e+00 1.066987e+00 1.053671e+00 1.012359e+00 8.962815e-01 6.521708e-01 8.052060e-02 2.923890e-02 5.563377e-02 9.033951e-02 1.256378e-01 1.411763e-01 1.613528e-01 1.511802e-01 1.839094e-01 1.436016e-01 1.314720e-01 1.436463e-01 9.314358e-02 1.247904e-02
<GCONST> 7.101273e+01
<MIXTURE> 70 1.077991e-02
<MEAN> 39
 -1.609384e+01 -1.067566e+01 -9.405009e+00 -1.255797e+01 -8.365146e+00 -1.055194e+01 -4.755218e+00 -4.120091e+00 -1.504828e+00 -1.817044e+00 1.504292e+00 2.287989e+00 4.454809e+01 3.869300e-02 5.387719e-02 1.332702e-01 2.642857e-03 -1.616915e-01 -1.181005e-01 -1.167028e-01 -9.946477e-02 -4.802208e-02 -4.815123e-02 9.106583e-02 1.078503e-01 -1.327958e-02 -7.881968e-02 -1.288757e-01 -1.297264e-01 -1.866510e-02 7.961868e-02 1.190947e-01 7.396166e-02 2.661207e-02 8.651981e-02 6.707929e-02 9.202577e-03 -3.416503e-02 3.980927e-02
<VARIANCE> 39
 4.462858e+01 3.889159e+01 4.035102e+01 4.163478e+01 4.792719e+01 4.079472e+01 3.556160e+01 3.214011e+01 2.763754e+01 2.404122e+01 2.210180e+01 1.463742e+01 1.115968e+02 2.546038e+00 2.835278e+00 3.170787e+00 3.543380e+00 3.971049e+00 3.778655e+00 3.666193e+00 3.811389e+00 3.523158e+00 3.184975e+00 2.594006e+00 1.901339e+00 2.424826e+00 1.132867e-01 1.518459e-01 1.838036e-01 2.319874e-01 2.889981e-01 2.976853e-01 2.962844e-01 2.970930e-01 2.812690e-01 2.505516e-01 2.373345e-01 1.521940e-01 8.399678e-02
<GCONST> 1.122649e+02
<MIXTURE> 71 8.660058e-03
<MEAN> 39
 -1.704096e+01 -9.216334e+00 -8.745653e+00 -7.188165e+00 -4.190917e+00 -6.840938e+00 -2.780376e+00 -4.656500e+00 -1.969204e+00 -2.730595e+00 -4.683724e-01 -1.079390e-01 3.834085e+01 -6.116516e-02 -9.032333e-02 -1.145818e-01 -1.178755e-01 -1.028109e-01 -4.720261e-02 1.269463e-02 7.062168e-02 1.357711e-01 1.392850e-01 8.923233e-02 1.425684e-02 -5.361129e-02 -1.625893e-01 -2.824135e-01 -3.466513e-01 -3.986576e-01 -3.565697e-01 -2.399221e-01 -1.232117e-01 2.705819e-02 1.588062e-01 2.182870e-01 3.078513e-01 3.111292e-01 -5.039877e-02
<VARIANCE> 39
 1.279570e+01 1.345435e+01 1.429906e+01 1.296421e+01 1.340282e+01 1.384975e+01 1.367171e+01 1.250424e+01 1.110263e+01 8.709171e+00 8.695411e+00 3.922463e+00 8.370540e+01 1.347925e-01 2.685321e-01 4.203683e-01 5.892207e-01 7.552267e-01 8.805407e-01 9.647176e-01 9.962262e-01 9.791804e-01 9.319223e-01 8.034518e-01 5.549713e-01 5.306136e-02 2.676638e-02 4.916709e-02 7.815375e-02 1.048372e-01 1.372550e-01 1.662758e-01 1.841578e-01 1.783720e-01 1.758396e-01 1.435733e-01 1.503365e-01 7.632912e-02 1.108771e-02
<GCONST> 6.466192e+01
<MIXTURE> 72 8.617701e-03
<MEAN> 39
 -1.803912e+01 -1.027063e+01 -9.445303e+00 -9.121041e+00 -6.141008e+00 -9.788177e+00 -4.827155e+00 -6.806998e+00 -3.963822e+00 -5.460273e+00 5.425441e-01 4.242236e+00 4.178487e+01 -1.110529e-01 -1.861809e-01 -2.159173e-01 -1.959659e-01 -1.401896e-01 -2.499113e-02 6.790312e-02 1.332757e-01 1.949794e-01 2.027604e-01 1.884145e-01 7.632654e-02 -7.398833e-02 -1.124102e-01 -2.503416e-01 -3.235587e-01 -2.839373e-01 -1.486690e-01 1.326409e-02 1.433024e-01 3.078661e-01 4.839918e-01 6.057399e-01 2.142784e-01 -2.298562e-01 -2.776489e-02
<VARIANCE> 39
 1.740233e+01 1.849255e+01 1.849962e+01 1.863569e+01 1.898154e+01 1.838805e+01 1.821744e+01 1.681090e+01 1.544610e+01 9.808900e+00 1.090610e+01 5.232793e+00 1.086989e+02 1.844428e-01 3.246950e-01 4.870804e-01 6.551773e-01 8.277640e-01 9.327353e-01 1.040655e+00 1.094414e+00 1.083004e+00 1.036671e+00 8.577882e-01 5.957342e-01 7.903781e-02 3.287862e-02 5.511111e-02 8.582077e-02 1.226860e-01 1.560600e-01 1.690548e-01 1.979679e-01 1.878731e-01 1.901063e-01 1.198219e-01 1.574889e-01 7.899009e-02 1.355010e-02
<GCONST> 7.118382e+01
<MIXTURE> 73 9.947794e-03
<MEAN> 39
 -1.952560e+01 -1.159805e+01 -1.192657e+01 -1.033883e+01 -7.287775e+00 -9.577457e+00 -5.771274e+00 -6.064240e+00 -8.763487e-01 -8.734995e-02 2.600810e+00 2.894629e+00 3.663109e+01 -5.728114e-02 -4.584961e-02 -1.066009e-01 -2.117548e-01 -1.950626e-01 -1.064723e-01 1.380456e-01 2.558618e-01 2.655077e-01 1.007467e-01 -2.308239e-02 -4.254971e-02 2.988612e-01 -5.649511e-02 -1.054600e-01 -1.030344e-01 -1.463650e-01 -8.642720e-02 4.359404e-02 2.492661e-01 2.707159e-01 8.759905e-02 -7.555630e-02 -2.664736e-02 1.538143e-03 5.997299e-02
<VARIANCE> 39
 1.540724e+01 1.471011e+01 1.353222e+01 1.246280e+01 1.301824e+01 1.271409e+01 1.294635e+01 1.182381e+01 1.070745e+01 9.109650e+00 9.144807e+00 5.080055e+00 8.309863e+01 7.533333e-01 9.399708e-01 1.044932e+00 1.250417e+00 1.480540e+00 1.561121e+00 1.715437e+00 1.715693e+00 1.593742e+00 1.502488e+00 1.288518e+00 9.654198e-01 8.822491e-01 5.619172e-02 8.222980e-02 1.062699e-01 1.282505e-01 1.457116e-01 1.672509e-01 1.837373e-01 1.745310e-01 1.758909e-01 1.524574e-01 1.604326e-01 9.129750e-02 4.464057e-02
<GCONST> 8.023457e+01
<MIXTURE> 74 9.137277e-03
<MEAN> 39
 -1.816613e+01 -1.604055e+01 -9.325009e+00 -1.088447e+01 -7.879358e+00 -1.090267e+01 -2.926376e+00 -1.035904e+00 -3.889415e+00 -6.750125e+00 3.922143e+00 5.555844e+00 4.323424e+01 -4.523512e-02 -1.341915e-01 -1.934147e-01 -9.806388e-02 -3.050979e-02 6.745985e-02 1.379330e-01 1.767507e-01 1.848752e-01 1.297346e-01 -1.660777e-03 -9.245320e-02 -8.559536e-02 1.542577e-03 6.164005e-02 -1.622430e-01 -1.561641e-01 2.954279e-02 8.314298e-02 -8.740683e-02 -1.707977e-01 3.818362e-01 5.913899e-01 -1.404229e-01 -2.907304e-01 -2.132444e-02
<VARIANCE> 39
 3.065260e+01 3.762190e+01 4.655004e+01 5.197180e+01 5.009513e+01 5.339518e+01 4.976135e+01 4.173143e+01 3.772674e+01 2.308892e+01 2.976351e+01 1.576568e+01 7.271032e+01 4.098321e-01 8.448741e-01 1.101143e+00 1.350009e+00 1.581478e+00 1.803426e+00 1.957715e+00 2.135075e+00 1.997684e+00 1.860031e+00 1.515339e+00 1.210465e+00 3.083249e-01 5.528228e-02 1.119092e-01 1.621092e-01 2.327354e-01 2.668077e-01 3.237843e-01 3.517328e-01 3.391193e-01 3.266360e-01 2.124007e-01 2.671353e-01 1.579145e-01 2.963344e-02
<GCONST> 9.952238e+01
<MIXTURE> 75 1.183506e-02
<MEAN> 39
 -1.899046e+01 -1.140447e+01 -1.136609e+01 -9.385612e+00 -5.841200e+00 -7.761666e+00 -5.458700e+00 -6.799642e+00 -1.124079e+00 1.469397e+00 2.831820e+00 9.978930e-01 3.490532e+01 2.845732e-02 9.109139e-02 1.034769e-01 6.650877e-02 3.525975e-02 6.038873e-02 1.110589e-01 6.075969e-02 -1.019525e-01 -2.506333e-01 -1.879822e-01 2.409563e-02 -1.594696e-02 -3.483509e-02 -4.247792e-02 -4.870580e-02 -1.455770e-01 -2.052161e-01 -9.061932e-02 2.106427e-01 3.542757e-01 5.039451e-02 -3.588254e-01 -1.351404e-01 2.135391e-01 9.873474e-06
<VARIANCE> 39
 1.111314e+01 9.629433e+00 9.024455e+00 8.254922e+00 8.162942e+00 9.558979e+00 9.098294e+00 7.793889e+00 7.184036e+00 6.072337e+00 6.161607e+00 3.695071e+00 5.018943e+01 1.215478e-01 2.285262e-01 3.629473e-01 5.045577e-01 6.610782e-01 7.666937e-01 8.767973e-01 9.019947e-01 8.951408e-01 8.497517e-01 7.138661e-01 5.105657e-01 5.284488e-02 2.407439e-02 4.579890e-02 7.279734e-02 9.520591e-02 1.040031e-01 1.291233e-01 1.420112e-01 1.228991e-01 1.283354e-01 1.132970e-01 1.191013e-01 6.832814e-02 9.989316e-03
<GCONST> 5.588882e+01
<MIXTURE> 76 8.361994e-03
<MEAN> 39
 -1.855700e+01 -1.122636e+01 -8.384908e+00 -1.259964e+01 -8.677008e+00 -1.500281e+01 -6.418298e+00 -7.037169e+00 -2.005476e+00 -4.982626e-01 2.908988e+00 5.492117e+00 4.261693e+01 1.735306e-02 1.978153e-02 9.270419e-03 5.893927e-02 5.245452e-02 5.738449e-02 -1.023293e-02 -6.394345e-02 -6.314843e-02 -5.456913e-02 -1.378682e-02 1.446988e-02 -7.097960e-02 -8.284081e-02 -2.372320e-01 -3.060821e-01 -9.677928e-02 1.262870e-01 4.520060e-01 3.496868e-01 3.400746e-01 2.029629e-01 -2.420391e-02 -7.326306e-02 -2.600715e-01 -1.877180e-02
<VARIANCE> 39
 2.756844e+01 3.103004e+01 3.030314e+01 3.222231e+01 4.448804e+01 2.611492e+01 3.296017e+01 3.199131e+01 2.669252e+01 1.995319e+01 1.941711e+01 9.713878e+00 7.537392e+01 3.732961e-01 5.385081e-01 7.435149e-01 9.383487e-01 1.225925e+00 1.282046e+00 1.442901e+00 1.529494e+00 1.454760e+00 1.334695e+00 1.136428e+00 8.358514e-01 1.732218e-01 7.592548e-02 9.205591e-02 1.283960e-01 1.922083e-01 2.507452e-01 2.073002e-01 2.829298e-01 2.928167e-01 2.759275e-01 2.162300e-01 2.235018e-01 1.239230e-01 3.626959e-02
<GCONST> 8.947445e+01
<MIXTURE> 77 1.003571e-02
<MEAN> 39
 -2.231084e+01 -1.201910e+01 -1.024286e+01 -1.102759e+01 -7.190380e+00 -8.915529e+00 -5.427896e+00 -5.712276e+00 -3.190866e-01 -3.413985e+00 2.320995e+00 5.792880e+00 4.110101e+01 -6.235876e-02 -1.865269e-01 -9.001403e-02 -1.652408e-01 -2.105983e-01 -1.691353e-01 -7.994167e-02 -1.188937e-02 4.210560e-02 3.994883e-02 1.829740e-01 2.001952e-01 6.567279e-02 2.830527e-01 1.272267e-02 -1.579173e-01 -6.932445e-02 -1.903807e-03 -4.198377e-02 2.483246e-01 2.568338e-01 4.298230e-02 3.555699e-01 -4.597532e-02 -4.667696e-01 -4.323549e-02
<VARIANCE> 39
 2.902232e+01 3.126025e+01 3.562846e+01 3.329516e+01 3.238014e+01 3.406642e+01 2.885502e+01 2.883421e+01 2.787214e+01 1.683227e+01 1.689664e+01 7.752940e+00 7.377158e+01 1.107873e+00 1.122530e+00 1.359375e+00 1.470990e+00 1.582669e+00 1.697040e+00 1.771164e+00 1.784343e+00 1.709604e+00 1.451525e+00 1.187385e+00 9.030110e-01 8.675633e-01 2.562233e-01 3.130056e-01 3.649421e-01 4.235215e-01 4.421027e-01 4.589030e-01 4.489532e-01 4.562363e-01 4.869361e-01 2.899483e-01 3.056198e-01 1.394029e-01 2.794447e-01
<GCONST> 1.045496e+02
<MIXTURE> 78 1.013452e-02
<MEAN> 39
 -1.975303e+01 -1.283722e+01 -1.327570e+01 -1.287399e+01 -9.378119e+00 -1.153496e+01 -4.963624e+00 -3.112020e+00 3.410196e+00 3.229621e+00 3.240599e+00 1.458689e+00 4.022720e+01 -1.132564e-01 -2.143026e-01 -2.800037e-01 -3.152154e-01 -2.614162e-01 -1.625671e-01 6.622355e-05 1.392051e-01 2.917075e-01 3.040762e-01 2.352662e-01 5.360378e-02 1.625447e-01 4.550397e-03 3.731125e-02 1.039464e-01 1.462229e-01 2.328882e-01 2.619848e-01 1.599288e-01 -1.099069e-01 -4.523422e-01 -5.138763e-01 -1.188141e-01 1.762598e-01 2.779273e-02
<VARIANCE> 39
 2.852562e+01 2.443462e+01 2.046511e+01 2.057133e+01 2.124260e+01 1.905733e+01 1.784364e+01 1.601118e+01 1.360440e+01 1.036265e+01 1.037130e+01 7.124907e+00 8.773361e+01 6.841606e-01 8.051941e-01 9.127728e-01 1.130454e+00 1.379656e+00 1.410056e+00 1.416847e+00 1.395141e+00 1.412265e+00 1.329355e+00 1.106471e+00 8.432807e-01 7.021295e-01 1.011471e-01 1.201454e-01 1.322064e-01 1.739739e-01 1.940769e-01 2.105580e-01 2.179769e-01 2.086983e-01 1.989608e-01 1.626657e-01 1.678242e-01 1.074280e-01 7.828205e-02
<GCONST> 8.617542e+01
<MIXTURE> 79 1.193009e-02
<MEAN> 39
 -1.969105e+01 -1.716397e+01 -1.555682e+01 -1.539382e+01 -7.848140e+00 -8.530085e+00 -1.066635e+00 4.895963e-01 4.486721e+00 8.737432e-01 9.348519e-01 3.589462e-01 4.215647e+01 -8.788613e-02 -9.302823e-02 -8.269753e-02 -2.060296e-02 -1.435784e-02 -1.415064e-03 -3.951812e-02 -9.333356e-02 -7.116842e-02 4.208451e-02 1.762060e-01 1.394809e-01 -1.077083e-01 5.873733e-02 1.653689e-01 2.390939e-01 2.375380e-01 6.645830e-02 -1.255684e-01 -2.935901e-01 -4.475797e-01 -4.376251e-01 -1.064327e-01 2.157682e-01 2.871172e-01 1.650636e-02
<VARIANCE> 39
 2.674451e+01 2.284444e+01 2.703511e+01 2.392110e+01 2.559238e+01 2.446554e+01 2.198330e+01 1.857399e+01 1.449778e+01 1.175534e+01 1.215225e+01 1.075358e+01 8.633383e+01 1.736478e-01 3.062255e-01 4.592730e-01 6.071355e-01 7.719740e-01 8.907605e-01 1.014574e+00 9.906965e-01 9.223014e-01 9.265192e-01 8.320807e-01 6.944718e-01 8.899187e-02 2.889944e-02 4.865745e-02 7.915008e-02 1.159552e-01 1.550265e-01 1.731790e-01 1.783315e-01 1.797264e-01 1.627493e-01 1.338236e-01 1.410637e-01 1.194586e-01 1.223770e-02
<GCONST> 7.315036e+01
<MIXTURE> 80 9.756060e-03
<MEAN> 39
 -1.915437e+01 -1.239453e+01 -1.263303e+01 -1.196168e+01 -8.255404e+00 -7.905641e+00 -1.147372e+00 -5.973663e-01 1.721591e+00 -1.681756e+00 -3.141203e-01 9.364929e-01 3.612609e+01 -7.438084e-02 -1.544642e-01 -2.606432e-01 -3.131346e-01 -2.398523e-01 -1.623055e-02 2.757092e-01 4.718377e-01 4.364495e-01 1.950325e-01 -6.252860e-02 -1.773109e-01 -4.312411e-02 -1.303112e-02 2.914943e-03 7.666321e-02 1.437150e-01 1.086121e-01 -9.610423e-02 -3.711096e-01 -5.000213e-01 -3.183803e-01 1.106215e-01 3.322395e-01 2.250102e-01 4.029822e-03
<VARIANCE> 39
 1.286679e+01 1.221821e+01 1.065317e+01 9.953271e+00 1.040846e+01 1.117905e+01 9.194230e+00 9.095507e+00 8.308009e+00 6.253229e+00 6.709440e+00 4.315201e+00 7.163874e+01 1.158167e-01 2.275210e-01 3.574864e-01 4.941634e-01 6.494185e-01 7.505530e-01 8.684373e-01 8.745764e-01 8.633946e-01 8.515450e-01 7.305152e-01 5.141878e-01 4.556064e-02 2.157597e-02 4.278505e-02 7.032172e-02 9.978582e-02 1.247727e-01 1.339380e-01 1.379873e-01 1.340844e-01 1.464068e-01 1.078055e-01 1.156052e-01 7.511614e-02 8.012678e-03
<GCONST> 5.767973e+01
<MIXTURE> 81 8.021076e-03
<MEAN> 39
 -1.234180e+01 -6.871672e+00 -6.469357e+00 -9.700283e+00 -8.614716e+00 -1.198993e+01 -6.739650e+00 -7.035712e+00 -3.610202e+00 -3.843652e+00 -1.346852e+00 2.570346e-01 4.339408e+01 -6.688268e-02 -1.468150e-02 2.502105e-02 1.489699e-01 1.597569e-01 1.167139e-01 6.437814e-05 -1.295964e-01 -1.288448e-01 -8.711840e-02 -6.687567e-04 5.175508e-02 -7.866407e-02 -1.587766e-01 -2.390623e-01 -2.148490e-01 -1.488750e-02 1.784714e-01 2.364982e-01 1.417207e-01 6.785440e-02 5.846859e-02 7.713614e-02 2.076754e-01 1.528128e-01 -2.298124e-02
<VARIANCE> 39
 1.440562e+01 2.407237e+01 2.047245e+01 2.250392e+01 2.461734e+01 1.903113e+01 2.094617e+01 2.083387e+01 1.844011e+01 1.757930e+01 1.453923e+01 8.471360e+00 9.491244e+01 2.293949e-01 4.035248e-01 5.697538e-01 7.396764e-01 9.733613e-01 1.040692e+00 1.107112e+00 1.234969e+00 1.274438e+00 1.247002e+00 1.095204e+00 7.588295e-01 1.121984e-01 4.556873e-02 7.588328e-02 1.071773e-01 1.372331e-01 1.622557e-01 1.845156e-01 2.105086e-01 2.234551e-01 2.201336e-01 2.098186e-01 1.935364e-01 1.181571e-01 2.350760e-02
<GCONST> 7.915165e+01
<MIXTURE> 82 9.181698e-03
<MEAN> 39
 -2.310038e+01 -1.400949e+01 -9.553370e+00 -1.082864e+01 -6.015174e+00 -8.728666e+00 -1.604906e+00 -1.388922e+00 -7.291976e-01 7.410796e-01 3.478353e+00 -2.701757e-03 4.135970e+01 -7.176035e-02 -1.973221e-01 -1.101651e-01 -1.643099e-01 -2.037036e-01 -1.722882e-01 -8.371389e-02 1.074130e-02 2.499044e-02 7.143800e-02 1.601933e-01 1.450054e-01 -2.897702e-02 3.663653e-01 2.125980e-01 -7.259622e-02 -1.780223e-02 -5.204137e-02 -3.155553e-02 -2.213542e-01 -3.071953e-01 -1.113969e-02 -2.388807e-01 -1.893393e-01 3.116608e-01 -1.385825e-01
<VARIANCE> 39
 3.450070e+01 4.689245e+01 4.583180e+01 4.615358e+01 4.669809e+01 3.633759e+01 3.721193e+01 2.907741e+01 2.862967e+01 1.919753e+01 1.901541e+01 8.645936e+00 6.780537e+01 8.170916e-01 9.724845e-01 1.107766e+00 1.261114e+00 1.405015e+00 1.385760e+00 1.558313e+00 1.508420e+00 1.418766e+00 1.236732e+00 1.045773e+00 7.302010e-01 6.469059e-01 2.184123e-01 3.578039e-01 3.899747e-01 4.432961e-01 4.921376e-01 4.457147e-01 5.027010e-01 4.150895e-01 4.451448e-01 3.157052e-01 2.976610e-01 1.474135e-01 2.647525e-01
<GCONST> 1.044508e+02
<MIXTURE> 83 9.602427e-03
<MEAN> 39
 -1.990559e+01 -1.515566e+01 -1.417023e+01 -1.349995e+01 -7.789459e+00 -7.706544e+00 -2.094349e+00 -5.065313e+00 -2.993033e+00 -1.101103e+00 5.263818e+00 5.017332e+00 4.041104e+01 -1.607782e-01 -3.215776e-01 -4.362696e-01 -3.987242e-01 -2.243388e-01 4.770635e-02 2.770728e-01 4.081350e-01 4.474325e-01 3.189645e-01 1.056238e-01 -1.012368e-01 -7.505183e-02 6.054758e-02 1.272867e-01 1.694060e-01 1.647878e-01 3.871116e-02 -2.059211e-01 -2.045004e-01 1.267024e-01 3.715715e-01 9.494136e-02 -3.201381e-01 -2.700248e-01 2.999496e-02
<VARIANCE> 39
 2.442506e+01 2.149463e+01 2.313691e+01 1.966948e+01 1.995854e+01 2.094982e+01 1.767023e+01 1.562226e+01 1.420674e+01 1.144593e+01 1.003037e+01 7.114137e+00 7.928752e+01 2.458191e-01 3.953390e-01 5.666044e-01 7.231217e-01 9.406065e-01 1.110176e+00 1.133834e+00 1.133690e+00 1.130858e+00 1.071750e+00 9.603314e-01 7.534204e-01 1.395080e-01 4.329745e-02 6.598901e-02 9.375696e-02 1.239478e-01 1.564085e-01 1.738028e-01 1.838794e-01 1.717529e-01 1.670689e-01 1.511962e-01 1.416206e-01 1.011409e-01 2.080155e-02
<GCONST> 7.524928e+01
<MIXTURE> 84 8.187870e-03
<MEAN> 39
 -1.918216e+01 -1.298904e+01 -1.235288e+01 -1.239995e+01 -8.718857e+00 -1.114502e+01 -6.103383e+00 -5.338443e+00 -7.723720e-02 -1.660597e+00 2.791698e+00 6.086884e+00 3.806080e+01 -1.955267e-01 -2.780721e-01 -2.566346e-01 -1.774015e-01 -1.163379e-01 -4.399174e-02 -3.708651e-02 -2.453128e-02 5.968538e-02 1.399773e-01 3.178615e-01 2.731682e-01 -1.070736e-01 -3.412746e-02 -5.853989e-02 -2.089208e-02 7.369743e-02 1.296200e-01 1.962617e-01 2.740336e-01 1.340312e-01 -1.369234e-02 1.607308e-01 -9.231437e-03 -4.080395e-01 -8.486274e-03
<VARIANCE> 39
 1.542063e+01 1.567395e+01 1.429118e+01 1.371572e+01 1.449601e+01 1.504744e+01 1.355107e+01 1.316743e+01 1.115549e+01 9.275883e+00 9.215812e+00 4.301467e+00 6.757154e+01 1.221655e-01 2.457048e-01 4.022003e-01 5.740899e-01 7.328164e-01 8.516482e-01 9.292313e-01 9.337136e-01 9.132455e-01 9.093451e-01 8.199729e-01 5.994126e-01 4.932900e-02 2.193843e-02 4.452277e-02 7.293595e-02 1.009550e-01 1.231654e-01 1.450922e-01 1.560070e-01 1.508804e-01 1.433670e-01 1.251933e-01 1.412294e-01 6.831712e-02 8.204620e-03
<GCONST> 6.297375e+01
<MIXTURE> 85 8.463574e-03
<MEAN> 39
 -2.211663e+01 -9.837186e+00 -1.001485e+01 -9.240337e+00 -6.619419e+00 -5.843163e+00 -3.118082e+00 -3.221788e+00 -1.195865e+00 -6.805210e-01 1.482182e+00 1.443100e+00 3.239872e+01 -1.020768e-01 -1.410616e-01 -1.488336e-01 -1.372366e-01 -1.147651e-01 -7.413850e-02 -1.744080e-02 3.469859e-02 7.341523e-02 1.147853e-01 1.372826e-01 6.956114e-02 -4.413402e-02 6.763202e-03 9.686112e-03 1.225171e-02 -8.334197e-03 -6.660095e-02 -1.362394e-01 -9.656196e-02 -2.276307e-02 1.777394e-02 -7.967850e-02 -2.906152e-02 1.238315e-01 2.890195e-03
<VARIANCE> 39
 4.664512e+00 2.492600e+00 2.128707e+00 3.070717e+00 3.167575e+00 3.988821e+00 4.606910e+00 5.353753e+00 4.982569e+00 4.824584e+00 4.879799e+00 2.037480e+00 1.387762e+01 6.937666e-02 1.347444e-01 2.445055e-01 3.665688e-01 4.709114e-01 5.574004e-01 6.613049e-01 7.064305e-01 7.025911e-01 6.642237e-01 5.612585e-01 3.634325e-01 2.232808e-02 1.180153e-02 2.405944e-02 4.019496e-02 5.949071e-02 7.025134e-02 7.992350e-02 9.946006e-02 1.065566e-01 1.039012e-01 1.004325e-01 1.009871e-01 4.650607e-02 3.924049e-03
<GCONST> 3.512318e+01
<MIXTURE> 86 5.616243e-03
<MEAN> 39
 -1.674854e+01 -1.780513e+01 -1.673695e+01 -1.727645e+01 -6.455172e+00 -3.426803e+00 4.137714e+00 2.311627e+00 -6.079829e-01 -6.052955e+00 -2.736981e+00 2.018533e+00 4.828353e+01 -5.456858e-02 5.451456e-02 4.716276e-02 2.671112e-02 2.269471e-02 -5.976588e-02 -1.384495e-01 -2.931194e-01 -2.266027e-01 -4.726803e-02 1.242481e-01 1.621449e-01 -5.617827e-01 -2.456673e-02 2.648866e-01 2.915647e-01 2.884770e-01 -3.024566e-02 -3.671585e-01 -6.241559e-01 -4.855665e-01 1.925686e-02 4.671313e-01 3.892778e-01 2.301710e-03 -1.812627e-01
<VARIANCE> 39
 3.705757e+01 5.218628e+01 6.506876e+01 6.940800e+01 6.405908e+01 8.707698e+01 8.102901e+01 5.404036e+01 5.925630e+01 5.154596e+01 4.491023e+01 3.151198e+01 1.500731e+02 1.750611e+00 2.801644e+00 2.749108e+00 3.156096e+00 3.434846e+00 4.500846e+00 5.234212e+00 4.144292e+00 3.639791e+00 3.306736e+00 2.901669e+00 2.118689e+00 3.114081e+00 2.816494e-01 4.296494e-01 4.553368e-01 5.600411e-01 6.035172e-01 7.501810e-01 7.833747e-01 7.496071e-01 7.538835e-01 5.693928e-01 5.415628e-01 4.316071e-01 5.029720e-01
<GCONST> 1.321779e+02
<MIXTURE> 87 8.314471e-03
<MEAN> 39
 -1.894938e+01 -1.068313e+01 -1.175900e+01 -1.143870e+01 -7.872890e+00 -7.534299e+00 -4.222892e+00 -3.195479e+00 4.296898e-01 -7.128771e-01 5.549691e-01 1.568218e+00 3.539499e+01 1.396967e-02 6.132485e-02 1.029136e-01 1.010213e-01 5.260750e-02 -2.213827e-02 -9.680724e-02 -1.612430e-01 -1.888925e-01 -1.422222e-01 4.355191e-03 1.199108e-01 -4.674334e-03 -9.891725e-02 -9.161291e-02 2.255015e-03 5.620871e-02 2.622685e-03 -4.021306e-02 1.670263e-02 -6.994987e-02 -1.623663e-01 -3.454901e-02 1.647302e-01 1.403714e-01 -4.088601e-02
<VARIANCE> 39
 5.300245e+00 4.734944e+00 5.268349e+00 4.488767e+00 4.911896e+00 5.556850e+00 5.410725e+00 5.903307e+00 4.966355e+00 4.783894e+00 4.796000e+00 2.473272e+00 4.049427e+01 8.251779e-02 1.412683e-01 2.539782e-01 3.594472e-01 4.571372e-01 5.390651e-01 6.361882e-01 6.635883e-01 6.615930e-01 6.375822e-01 5.730770e-01 3.801439e-01 3.021653e-02 1.089578e-02 2.680948e-02 4.715700e-02 6.436418e-02 7.733008e-02 8.882438e-02 1.016268e-01 1.083787e-01 9.942779e-02 9.274879e-02 9.305544e-02 5.366467e-02 3.931661e-03
<GCONST> 4.023156e+01
<MIXTURE> 88 5.341182e-03
<MEAN> 39
 -1.723199e+01 -9.480404e+00 -8.449450e+00 -7.604825e+00 -4.055616e+00 -6.554436e+00 -1.750441e+00 -3.107011e+00 -4.577317e-01 -1.748479e+00 4.204546e-01 -1.467414e-02 3.960049e+01 -7.785467e-01 -1.192411e+00 -1.313366e+00 -1.194945e+00 -9.425689e-01 -5.667360e-01 -1.156815e-01 2.109003e-01 5.606368e-01 7.126920e-01 7.772036e-01 5.857252e-01 -3.816962e-01 2.860798e-02 5.423917e-03 -3.863869e-02 -9.486140e-02 -1.124812e-01 -1.448066e-01 -1.786408e-01 -1.650109e-01 -1.250920e-01 -4.958342e-02 2.313049e-02 1.256874e-01 2.796861e-02
<VARIANCE> 39
 2.014740e+01 2.315295e+01 2.374779e+01 2.272512e+01 2.238872e+01 2.194588e+01 1.882689e+01 1.753016e+01 1.565111e+01 1.367425e+01 1.180976e+01 7.215128e+00 7.934599e+01 3.540245e-01 4.986667e-01 6.247277e-01 7.912182e-01 1.048357e+00 1.247277e+00 1.391038e+00 1.468374e+00 1.378806e+00 1.223019e+00 9.747251e-01 6.628165e-01 1.902453e-01 4.061094e-02 7.126803e-02 1.002060e-01 1.320208e-01 1.652936e-01 1.880616e-01 1.915305e-01 1.896928e-01 1.942147e-01 1.811819e-01 1.621592e-01 1.014833e-01 1.681251e-02
<GCONST> 7.876837e+01
<MIXTURE> 89 1.033990e-02
<MEAN> 39
 -1.863147e+01 -1.554168e+01 -1.153327e+01 -1.293214e+01 -1.033274e+01 -1.320759e+01 -3.493740e+00 -1.089946e+00 -2.080286e-01 6.216136e-01 6.213081e+00 2.560309e+00 4.230856e+01 1.473390e-02 -1.796073e-02 -1.548621e-01 -2.612554e-01 -2.799238e-01 -9.455947e-02 2.274405e-01 5.135931e-01 4.850723e-01 1.194313e-01 -2.088504e-01 -2.048443e-01 -6.534339e-02 -1.449884e-02 1.583110e-02 -3.396994e-02 3.820471e-02 2.579331e-01 3.188642e-01 -8.505601e-03 -2.395810e-01 1.301930e-02 -1.142325e-01 -3.493812e-01 4.386355e-02 -1.193519e-02
<VARIANCE> 39
 2.648939e+01 2.801626e+01 2.648906e+01 3.133720e+01 2.941931e+01 2.257402e+01 2.507184e+01 2.208357e+01 2.332065e+01 1.579776e+01 1.206465e+01 8.681806e+00 7.485551e+01 1.547464e-01 2.977526e-01 4.645694e-01 6.450626e-01 8.270825e-01 9.274859e-01 1.015129e+00 1.012227e+00 1.031462e+00 1.065497e+00 9.064734e-01 6.562170e-01 7.402750e-02 2.647630e-02 5.240777e-02 8.520772e-02 1.329833e-01 1.514382e-01 1.550721e-01 1.885951e-01 1.820886e-01 2.025133e-01 1.509866e-01 1.410550e-01 9.370025e-02 1.038778e-02
<GCONST> 7.458659e+01
<MIXTURE> 90 1.047746e-02
<MEAN> 39
